{"learner":{"attributes":{"scikit_learn":"{\"_estimator_type\": \"classifier\"}"},"feature_names":[],"feature_types":[],"gradient_booster":{"model":{"cats":{"enc":[],"feature_segments":[],"sorted_idx":[]},"gbtree_model_param":{"num_parallel_tree":"1","num_trees":"200"},"iteration_indptr":[0,1,2,3,4,5,6,7,8,9,10,11,12,13,14,15,16,17,18,19,20,21,22,23,24,25,26,27,28,29,30,31,32,33,34,35,36,37,38,39,40,41,42,43,44,45,46,47,48,49,50,51,52,53,54,55,56,57,58,59,60,61,62,63,64,65,66,67,68,69,70,71,72,73,74,75,76,77,78,79,80,81,82,83,84,85,86,87,88,89,90,91,92,93,94,95,96,97,98,99,100,101,102,103,104,105,106,107,108,109,110,111,112,113,114,115,116,117,118,119,120,121,122,123,124,125,126,127,128,129,130,131,132,133,134,135,136,137,138,139,140,141,142,143,144,145,146,147,148,149,150,151,152,153,154,155,156,157,158,159,160,161,162,163,164,165,166,167,168,169,170,171,172,173,174,175,176,177,178,179,180,181,182,183,184,185,186,187,188,189,190,191,192,193,194,195,196,197,198,199,200],"tree_info":[0,0,0,0,0,0,0,0,0,0,0,0,0,0,0,0,0,0,0,0,0,0,0,0,0,0,0,0,0,0,0,0,0,0,0,0,0,0,0,0,0,0,0,0,0,0,0,0,0,0,0,0,0,0,0,0,0,0,0,0,0,0,0,0,0,0,0,0,0,0,0,0,0,0,0,0,0,0,0,0,0,0,0,0,0,0,0,0,0,0,0,0,0,0,0,0,0,0,0,0,0,0,0,0,0,0,0,0,0,0,0,0,0,0,0,0,0,0,0,0,0,0,0,0,0,0,0,0,0,0,0,0,0,0,0,0,0,0,0,0,0,0,0,0,0,0,0,0,0,0,0,0,0,0,0,0,0,0,0,0,0,0,0,0,0,0,0,0,0,0,0,0,0,0,0,0,0,0,0,0,0,0,0,0,0,0,0,0,0,0,0,0,0,0,0,0,0,0,0,0],"trees":[{"base_weights":[-2.8115723E-8,1.448279E0,-3.977238E-1,-1.1001452E0,1.5983393E0,1.0693262E-1,-1.1217916E0,-1.8678945E0,2.7774426E-1,1.6454278E0,-1.3322083E0,-1.4791646E0,4.312282E-1,1.4596899E-1,-1.5582722E0,1.1410105E0,-1.9340624E0,-1.6002938E0,1.0239968E0,-9.378893E-1,1.6924301E0,1.2666778E-1,-1.4553258E0,-1.6095378E0,1.5235804E0,-1.720194E0,5.77654E-1,1.4598325E0,-2.0464873E-1,-1.6039127E0,1.0231931E-1,1.4326736E-1,1.23234885E-2,1.1160822E-1,-1.9613162E0,-1.7983078E0,1.2243003E-1,-1.534991E0,1.5028927E0,1.6737044E0,-1.4721159E0,1.7843559E0,9.084893E-1,8.304935E-1,-1.5704273E0,-1.6726335E0,1.6840564E0,-1.4666668E-1,1.6494036E0,-1.7923344E0,1.4858191E0,8.6865824E-1,-1.07281335E-1,1.7193476E0,2.1392141E-1,1.5549153E0,-4.853949E-1,-1.6257789E0,1.1738977E0,-5.298378E-1,1.3140893E0,-1.9819808E-1,6.344956E-2,1.23234885E-2,-1.8816407E-1,3.653389E-2,-1.8181819E-1,-1.6923077E-1,1.8301412E-1,-4.205298E-2,1.8597266E-1,-1.8117282E-1,8.865194E-2,-1.8857144E-1,1.7990328E-1,1.0444205E-1,-1.5480451E-1,-4.205298E-2,1.376878E-1,1.1160822E-1,-1.6339253E-1,1.2256821E-1,-1.7183547E-1,-1E-1,1.7929995E-1,-1.0159876E-1,1.7456356E-1,-1.8212377E-1,1.3242431E-1,1.803038E-1,4.3036807E-2,-1.7177613E-1,9.475615E-2,-5.5131298E-2,1.03417575E-1,-4.4717226E-2,1.8010107E-1,1.8072797E-1,-4.00763E-2,-1.6923077E-1,1.6469525E-1,-2.4775652E-2,-1.6521786E-1,-1.6424385E-1,1.6537924E-1,1.6063695E-1,-4.4563405E-2,-1.1053766E-1,1.3522913E-1,1.6731004E-1,-6.3339784E-3],"categories":[],"categories_nodes":[],"categories_segments":[],"categories_sizes":[],"default_left":[0,0,1,0,1,0,0,0,0,0,0,1,0,0,1,0,0,1,0,0,1,0,0,1,0,1,1,1,0,1,1,0,0,0,1,0,0,0,0,0,0,0,1,0,0,0,0,0,0,1,0,0,1,0,0,0,1,1,0,1,0,0,0,0,0,0,0,0,0,0,0,0,0,0,0,0,0,0,0,0,0,0,0,0,0,0,0,0,0,0,0,0,0,0,0,0,0,0,0,0,0,0,0,0,0,0,0,0,0,0,0],"id":0,"left_children":[1,3,5,7,9,11,13,15,17,19,21,23,25,27,29,31,33,35,37,39,41,-1,43,45,47,49,51,53,55,57,59,-1,-1,-1,61,63,-1,65,67,69,71,73,75,77,79,81,83,-1,85,87,89,91,93,95,97,99,101,103,105,107,109,-1,-1,-1,-1,-1,-1,-1,-1,-1,-1,-1,-1,-1,-1,-1,-1,-1,-1,-1,-1,-1,-1,-1,-1,-1,-1,-1,-1,-1,-1,-1,-1,-1,-1,-1,-1,-1,-1,-1,-1,-1,-1,-1,-1,-1,-1,-1,-1,-1,-1],"loss_changes":[1.3975276E4,2.0007617E3,6.9555107E3,3.0865268E2,6.8347266E2,5.77066E3,4.3263115E3,3.9473328E1,1.4892796E2,5.916221E2,2.7001465E1,7.480127E2,2.9352168E3,9.231018E2,4.4094043E2,1.2057548E0,1.744513E1,1.9134926E1,9.52228E1,1.2451135E2,3.4233496E2,0E0,2.117772E1,3.8222266E2,3.2428833E1,1.3999622E2,1.7384558E3,1.361081E2,7.823033E2,3.457129E2,1.2058504E2,0E0,0E0,0E0,1.1034424E1,4.827072E0,0E0,7.362673E0,7.0406555E1,6.7517204E0,6.020427E1,2.3344629E2,1.6956918E2,3.5013604E0,1.4150345E1,2.3955908E2,1.1973625E1,0E0,2.1526703E1,5.4763306E1,3.7820778E0,1.250793E3,1.3191001E3,6.2585083E1,7.3107704E1,6.7920715E1,3.781163E2,3.0957715E2,3.20859E1,1.1367922E2,2.6781387E1,0E0,0E0,0E0,0E0,0E0,0E0,0E0,0E0,0E0,0E0,0E0,0E0,0E0,0E0,0E0,0E0,0E0,0E0,0E0,0E0,0E0,0E0,0E0,0E0,0E0,0E0,0E0,0E0,0E0,0E0,0E0,0E0,0E0,0E0,0E0,0E0,0E0,0E0,0E0,0E0,0E0,0E0,0E0,0E0,0E0,0E0,0E0,0E0,0E0,0E0],"parents":[2147483647,0,0,1,1,2,2,3,3,4,4,5,5,6,6,7,7,8,8,9,9,10,10,11,11,12,12,13,13,14,14,15,15,16,16,17,17,18,18,19,19,20,20,22,22,23,23,24,24,25,25,26,26,27,27,28,28,29,29,30,30,34,34,35,35,37,37,38,38,39,39,40,40,41,41,42,42,43,43,44,44,45,45,46,46,48,48,49,49,50,50,51,51,52,52,53,53,54,54,55,55,56,56,57,57,58,58,59,59,60,60],"right_children":[2,4,6,8,10,12,14,16,18,20,22,24,26,28,30,32,34,36,38,40,42,-1,44,46,48,50,52,54,56,58,60,-1,-1,-1,62,64,-1,66,68,70,72,74,76,78,80,82,84,-1,86,88,90,92,94,96,98,100,102,104,106,108,110,-1,-1,-1,-1,-1,-1,-1,-1,-1,-1,-1,-1,-1,-1,-1,-1,-1,-1,-1,-1,-1,-1,-1,-1,-1,-1,-1,-1,-1,-1,-1,-1,-1,-1,-1,-1,-1,-1,-1,-1,-1,-1,-1,-1,-1,-1,-1,-1,-1,-1],"split_conditions":[2.00001E0,6.0500626E-2,6.701822E-3,7.83291E-2,1.1209895E-2,1.3444813E0,3.958216E-1,1.4449441E-1,1.4210498E-1,9.7155017E-1,9.158444E-2,4.0386777E-2,1.1375548E0,9.879837E-1,3.7877858E-2,3.663001E-2,3.0326253E-1,4.549513E-2,7.6925755E-2,1.8997806E-1,3.399175E-2,1.2666778E-1,1.63493E-1,1.1677003E-2,1.794329E-1,7.873877E-2,4.0355183E-2,1.0753984E-1,3.1637898E-1,4.961846E-2,4.555778E-2,1.4326736E-1,1.23234885E-2,1.1160822E-1,5.7756595E-2,6.832105E-2,1.2243003E-1,3.4210324E-2,9.0349756E-2,9.035198E-2,2.00001E0,5.664727E-1,8.288965E-2,1.074691E-1,3.2798624E-1,8.879366E-1,6.834529E-2,-1.4666668E-1,2.3268189E-1,6.953365E-2,1.0904939E0,6.1579585E-1,1.4136509E-2,1.5585878E-1,2.0523427E-1,8.839753E-2,2.2907153E-2,9.896983E-2,1.1240127E-1,5.5134673E-2,3.0958703E-1,-1.9819808E-1,6.344956E-2,1.23234885E-2,-1.8816407E-1,3.653389E-2,-1.8181819E-1,-1.6923077E-1,1.8301412E-1,-4.205298E-2,1.8597266E-1,-1.8117282E-1,8.865194E-2,-1.8857144E-1,1.7990328E-1,1.0444205E-1,-1.5480451E-1,-4.205298E-2,1.376878E-1,1.1160822E-1,-1.6339253E-1,1.2256821E-1,-1.7183547E-1,-1E-1,1.7929995E-1,-1.0159876E-1,1.7456356E-1,-1.8212377E-1,1.3242431E-1,1.803038E-1,4.3036807E-2,-1.7177613E-1,9.475615E-2,-5.5131298E-2,1.03417575E-1,-4.4717226E-2,1.8010107E-1,1.8072797E-1,-4.00763E-2,-1.6923077E-1,1.6469525E-1,-2.4775652E-2,-1.6521786E-1,-1.6424385E-1,1.6537924E-1,1.6063695E-1,-4.4563405E-2,-1.1053766E-1,1.3522913E-1,1.6731004E-1,-6.3339784E-3],"split_indices":[2814,9300,2101,8030,3266,8900,3426,5783,7232,5108,4480,9401,1564,5459,9822,2101,2031,3426,8591,4870,2101,0,9869,1934,9414,331,5914,5914,6715,8951,7277,0,0,0,5131,453,0,2157,9907,1564,9346,2493,5085,4883,5884,6226,3728,0,4883,1486,1801,9907,3426,8939,8077,4795,8900,5720,9346,1511,396,0,0,0,0,0,0,0,0,0,0,0,0,0,0,0,0,0,0,0,0,0,0,0,0,0,0,0,0,0,0,0,0,0,0,0,0,0,0,0,0,0,0,0,0,0,0,0,0,0,0],"split_type":[0,0,0,0,0,0,0,0,0,0,0,0,0,0,0,0,0,0,0,0,0,0,0,0,0,0,0,0,0,0,0,0,0,0,0,0,0,0,0,0,0,0,0,0,0,0,0,0,0,0,0,0,0,0,0,0,0,0,0,0,0,0,0,0,0,0,0,0,0,0,0,0,0,0,0,0,0,0,0,0,0,0,0,0,0,0,0,0,0,0,0,0,0,0,0,0,0,0,0,0,0,0,0,0,0,0,0,0,0,0,0],"sum_hessian":[2.426E4,5.2262803E3,1.9033719E4,2.9027667E2,4.9360034E3,1.1216772E4,7.816947E3,1.8618195E2,1.0409473E2,4.858377E3,7.762654E1,1.9034801E3,9.313293E3,2.0022028E3,5.8147437E3,3.6566346E0,1.8252531E2,2.9275307E1,7.481942E1,8.647777E1,4.7718994E3,3.090971E0,7.453557E1,1.8247185E3,7.876163E1,5.9278625E2,8.720507E3,4.2109128E2,1.5811115E3,5.659237E3,1.5550684E2,2.5253077E0,1.1313269E0,1.2626538E0,1.8126265E2,2.7696991E1,1.5783173E0,1.144699E1,6.3372433E1,1.4323528E1,7.215424E1,4.269927E3,5.0197263E2,3.2753077E0,7.126026E1,1.7909022E3,3.3816345E1,2.75E0,7.601163E1,5.8017236E2,1.2613884E1,6.1200503E3,2.600456E3,3.4818637E2,7.290492E1,2.1693604E2,1.3641754E3,5.615448E3,4.3788643E1,1.0256395E2,5.2942883E1,1.8006566E2,1.1969904E0,1.1313269E0,2.6565664E1,1.4469904E0,1E1,5.5E0,5.7872433E1,1.0656635E0,1.3257865E1,6.3275307E1,8.878933E0,1.65E1,4.253427E3,4.7619733E2,2.5775307E1,1.0656635E0,2.2096443E0,1.2626538E0,6.9997604E1,2.7412106E1,1.7634901E3,1E0,3.2816345E1,2.3156633E0,7.369596E1,5.7525305E2,4.9192886E0,9.154241E0,3.4596443E0,1.8056087E2,5.9394893E3,1.8725452E3,7.279111E2,1.2484952E1,3.3570142E2,1.975547E1,5.3149452E1,5.5E0,2.1143604E2,1.1343542E3,2.2982114E2,5.587564E3,2.7884403E1,3.4566345E1,9.222298E0,7.886149E1,2.3702461E1,4.1826607E1,1.1116279E1],"tree_param":{"num_deleted":"0","num_feature":"10000","num_nodes":"111","size_leaf_vector":"1"}},{"base_weights":[2.9722482E-6,1.3137904E0,-3.5959274E-1,-8.40598E-1,1.459938E0,9.6511915E-2,-1.0156041E0,-1.6873785E0,4.5800453E-1,1.5031761E0,-1.2046698E0,-1.3414255E0,3.8908616E-1,1.318944E-1,-1.4121059E0,1.1932952E0,-1.7610135E0,-1.4051996E0,1.0345331E0,-8.7029606E-1,1.5464218E0,1.4240353E-1,-1.3108375E0,-1.4466332E0,1.75519E0,5.5793756E-1,-1.1349213E0,1.3239939E0,-1.8468793E-1,-1.4429799E0,7.3278105E-1,6.7358552E-3,1.462703E-1,-1.78487E0,1.0685021E-1,-1.6526953E0,1.2925862E-1,-1.3595555E0,1.3789544E0,1.527597E0,-1.3647994E0,1.5707221E0,-9.806945E-1,8.487658E-1,-1.4299062E0,1.2929716E0,-1.5092194E0,1.8429129E-1,-7.7369936E-2,1.9073342E-1,4.2235264E-1,1.2365137E0,-1.4495351E0,1.4776787E0,-5.4317653E-1,1.4092357E0,-4.3761522E-1,1.4952755E0,-1.4625651E0,-1.5320002E0,1.1601951E0,5.3652775E-2,-1.8087983E-1,-1.7335145E-1,1.9386275E-2,-1.6039889E-1,5.9837867E-2,-1.2805483E-1,1.5996346E-1,-4.3424137E-2,1.7056575E-1,-1.6470934E-1,7.327715E-2,-1.1702108E-1,1.588623E-1,-1.4513552E-1,1.3702331E-1,1.3561313E-1,-4.2664755E-2,-1.4926235E-1,1.1725302E-1,1.7548852E-1,-2.8743202E-2,1.4399253E-1,-1.5521672E-1,1.0245039E-1,-9.508491E-3,-1.3276482E-1,1.511811E-1,-1.5576743E-1,1.8424456E-1,-5.7017338E-2,1.582175E-1,8.3709165E-2,-1.16851024E-1,-1.5825765E-1,1.5023945E-1,-1.8689638E-1,-2.5329903E-2,-1.3928358E-1,1.7572626E-1,-1.4975987E-1,1.1001079E-2,1.8737024E-2,-1.7028715E-1,-1.6006212E-1,1.4654644E-1],"categories":[],"categories_nodes":[],"categories_segments":[],"categories_sizes":[],"default_left":[0,0,1,0,1,0,0,0,0,0,0,1,1,0,1,0,1,1,0,0,1,0,0,0,1,0,0,0,0,0,0,0,0,0,0,1,0,1,0,0,0,0,1,1,1,0,0,0,0,0,0,0,1,0,1,0,0,0,1,0,0,0,0,0,0,0,0,0,0,0,0,0,0,0,0,0,0,0,0,0,0,0,0,0,0,0,0,0,0,0,0,0,0,0,0,0,0,0,0,0,0,0,0,0,0,0,0],"id":1,"left_children":[1,3,5,7,9,11,13,15,17,19,21,23,25,27,29,31,33,35,37,39,41,-1,43,45,47,49,51,53,55,57,59,-1,-1,61,-1,63,-1,65,67,69,71,73,75,77,79,81,83,-1,-1,-1,85,87,89,91,93,95,97,99,101,103,105,-1,-1,-1,-1,-1,-1,-1,-1,-1,-1,-1,-1,-1,-1,-1,-1,-1,-1,-1,-1,-1,-1,-1,-1,-1,-1,-1,-1,-1,-1,-1,-1,-1,-1,-1,-1,-1,-1,-1,-1,-1,-1,-1,-1,-1,-1],"loss_changes":[1.1404991E4,1.6346162E3,5.671115E3,3.63867E2,5.615713E2,4.704419E3,3.536913E3,4.454254E1,1.4229587E2,4.921162E2,2.3672653E1,6.1846704E2,2.3916096E3,7.539473E2,3.8362988E2,1.5950136E0,1.510376E1,2.3106731E1,8.4915405E1,1.0429719E2,2.8993164E2,0E0,2.0659134E1,3.1555444E2,1.5307327E1,1.5297029E3,6.934811E2,1.210932E2,6.371491E2,3.2994043E2,8.177411E1,0E0,0E0,1.1759766E1,0E0,4.69487E0,0E0,7.2624836E0,5.4011154E1,6.0535927E0,4.38347E1,2.3009961E2,5.2160427E1,3.5416818E0,1.3508774E1,3.0718704E1,2.2877979E2,0E0,0E0,0E0,2.3689614E3,7.904181E1,2.9441394E2,8.384253E1,2.9125439E1,6.2710632E1,3.5923038E2,3.1356705E1,3.118994E2,4.3002644E0,6.141712E1,0E0,0E0,0E0,0E0,0E0,0E0,0E0,0E0,0E0,0E0,0E0,0E0,0E0,0E0,0E0,0E0,0E0,0E0,0E0,0E0,0E0,0E0,0E0,0E0,0E0,0E0,0E0,0E0,0E0,0E0,0E0,0E0,0E0,0E0,0E0,0E0,0E0,0E0,0E0,0E0,0E0,0E0,0E0,0E0,0E0,0E0],"parents":[2147483647,0,0,1,1,2,2,3,3,4,4,5,5,6,6,7,7,8,8,9,9,10,10,11,11,12,12,13,13,14,14,15,15,16,16,17,17,18,18,19,19,20,20,22,22,23,23,24,24,25,25,26,26,27,27,28,28,29,29,30,30,33,33,35,35,37,37,38,38,39,39,40,40,41,41,42,42,43,43,44,44,45,45,46,46,50,50,51,51,52,52,53,53,54,54,55,55,56,56,57,57,58,58,59,59,60,60],"right_children":[2,4,6,8,10,12,14,16,18,20,22,24,26,28,30,32,34,36,38,40,42,-1,44,46,48,50,52,54,56,58,60,-1,-1,62,-1,64,-1,66,68,70,72,74,76,78,80,82,84,-1,-1,-1,86,88,90,92,94,96,98,100,102,104,106,-1,-1,-1,-1,-1,-1,-1,-1,-1,-1,-1,-1,-1,-1,-1,-1,-1,-1,-1,-1,-1,-1,-1,-1,-1,-1,-1,-1,-1,-1,-1,-1,-1,-1,-1,-1,-1,-1,-1,-1,-1,-1,-1,-1,-1,-1],"split_conditions":[2.00001E0,7.880977E-2,6.701822E-3,7.879441E-2,1.1209895E-2,1.3444813E0,3.958216E-1,1.4449441E-1,1.4210498E-1,9.7155017E-1,1.7969753E-1,3.0625686E-2,5.550182E-3,9.879837E-1,3.6698867E-2,1.121526E-1,4.213899E-2,4.549513E-2,1.9287974E0,1.8997806E-1,2.256102E-2,1.4240353E-1,1.63493E-1,3.7381655E-1,8.566359E-2,1.389313E0,3.4462395E-1,8.600098E-2,3.1637898E-1,2.0842788E-1,5.5110343E-2,6.7358552E-3,1.462703E-1,8.3327815E-2,1.0685021E-1,5.7485774E-2,1.2925862E-1,4.9322832E-2,9.49912E-2,1.0260776E-1,2.00001E0,2.5112823E-1,4.346875E-2,5.0391514E-2,4.4000324E-2,1.6780959E-1,4.018056E-1,1.8429129E-1,-7.7369936E-2,1.9073342E-1,2.00001E0,1.22453496E-1,2.3185629E-1,1.5585878E-1,5.4058142E-2,2.4224822E-1,2.3239774E-1,8.876907E-2,2.6346467E-2,7.419237E-2,1.870998E-1,5.3652775E-2,-1.8087983E-1,-1.7335145E-1,1.9386275E-2,-1.6039889E-1,5.9837867E-2,-1.2805483E-1,1.5996346E-1,-4.3424137E-2,1.7056575E-1,-1.6470934E-1,7.327715E-2,-1.1702108E-1,1.588623E-1,-1.4513552E-1,1.3702331E-1,1.3561313E-1,-4.2664755E-2,-1.4926235E-1,1.1725302E-1,1.7548852E-1,-2.8743202E-2,1.4399253E-1,-1.5521672E-1,1.0245039E-1,-9.508491E-3,-1.3276482E-1,1.511811E-1,-1.5576743E-1,1.8424456E-1,-5.7017338E-2,1.582175E-1,8.3709165E-2,-1.16851024E-1,-1.5825765E-1,1.5023945E-1,-1.8689638E-1,-2.5329903E-2,-1.3928358E-1,1.7572626E-1,-1.4975987E-1,1.1001079E-2,1.8737024E-2,-1.7028715E-1,-1.6006212E-1,1.4654644E-1],"split_indices":[2814,9300,2101,8030,3266,8900,3426,5783,7232,5108,9281,5053,4883,5459,2837,5086,7300,3426,9848,4870,4795,0,9869,4505,9686,8168,1511,2101,6715,1894,7985,0,0,9822,0,1511,0,4728,8591,7972,9346,2246,9346,6380,8577,3426,6508,0,0,0,9346,1564,3489,8939,5914,3728,9907,9556,5459,2407,9907,0,0,0,0,0,0,0,0,0,0,0,0,0,0,0,0,0,0,0,0,0,0,0,0,0,0,0,0,0,0,0,0,0,0,0,0,0,0,0,0,0,0,0,0,0,0],"split_type":[0,0,0,0,0,0,0,0,0,0,0,0,0,0,0,0,0,0,0,0,0,0,0,0,0,0,0,0,0,0,0,0,0,0,0,0,0,0,0,0,0,0,0,0,0,0,0,0,0,0,0,0,0,0,0,0,0,0,0,0,0,0,0,0,0,0,0,0,0,0,0,0,0,0,0,0,0,0,0,0,0,0,0,0,0,0,0,0,0,0,0,0,0,0,0,0,0,0,0,0,0,0,0,0,0,0,0],"sum_hessian":[2.4139002E4,5.1866943E3,1.8952307E4,3.2919635E2,4.857498E3,1.1180028E4,7.772279E3,1.9908167E2,1.3011469E2,4.780364E3,7.7134224E1,1.8895795E3,9.290449E3,1.9961052E3,5.776174E3,4.5830464E0,1.9449861E2,3.0407494E1,9.9707184E1,8.519941E1,4.6951646E3,2.5124726E0,7.462176E1,1.8280056E3,6.1573742E1,8.364359E3,9.260899E2,4.1819568E2,1.5779095E3,5.694532E3,8.164127E1,1.1262271E0,3.4568195E0,1.9323856E2,1.260057E0,2.820715E1,2.2003448E0,1.2169444E1,8.753774E1,1.4209081E1,7.0990326E1,4.6508213E3,4.4343178E1,3.5790262E0,7.104273E1,4.0388905E1,1.7876168E3,5.977162E1,1.8021215E0,7.625074E2,7.6018516E3,1.081286E2,8.179613E2,3.865849E2,3.1610786E1,2.1546951E2,1.3624401E3,3.720685E1,5.6573257E3,1.2551109E1,6.9090164E1,1.7529557E0,1.9148561E2,2.7083012E1,1.1241375E0,1.097951E1,1.1899347E0,6.3391733E0,8.119857E1,1.0626183E0,1.3146462E1,6.2758907E1,8.231421E0,2.9759281E1,4.621062E3,3.7265244E1,7.0779347E0,2.5151856E0,1.0638406E0,6.9787346E1,1.2553804E0,3.1168661E1,9.220242E0,2.519213E1,1.7624247E3,3.5128755E3,4.088976E3,1.0112899E1,9.80157E1,7.924565E2,2.5504805E1,1.8552301E1,3.680326E2,9.750455E0,2.186033E1,6.0238724E0,2.0944565E2,1.5438545E2,1.2080546E3,2.7354279E0,3.447142E1,5.534086E3,1.2323983E2,1.1258476E0,1.14252615E1,6.4563603E0,6.26338E1],"tree_param":{"num_deleted":"0","num_feature":"10000","num_nodes":"107","size_leaf_vector":"1"}},{"base_weights":[-3.32266E-6,1.2070241E0,-3.2716018E-1,-7.7478534E-1,1.341017E0,-9.2387825E-1,9.030349E-2,-1.5578467E0,4.199855E-1,-1.238226E0,1.379857E0,1.20479345E-1,-1.287948E0,3.4528008E-1,-1.2758244E0,1.1117578E0,-1.6271526E0,-1.2924733E0,9.493055E-1,-1.4900758E0,1.3649105E-1,1.4162142E0,-1.051099E0,4.516068E-1,-8.507188E-1,6.982957E-1,-1.3216178E0,-1.5105995E0,4.7729853E-1,-1.3738977E0,1.2920005E0,3.380073E-3,1.3770981E-1,1.0146379E-1,-1.6499543E0,-1.5253327E0,1.2145002E-1,-1.3107456E0,1.2600206E0,-1.6130621E0,4.478269E-1,1.4405146E0,-1.0463079E0,1.32845E-1,-1.1591681E0,-1.5654435E0,6.868819E-1,-9.8450273E-1,1.9648902E-1,-1.2650967E0,1.0190388E0,-1.3446878E0,1.066766E0,-1.5715082E0,1.3401253E0,5.504177E-1,-1.779657E0,1.0029448E0,-1.4303417E0,1.4064023E0,-1.3117543E-1,-1.6668406E-1,3.271244E-2,2.2817314E-2,-1.6046153E-1,3.9570116E-2,-1.5709896E-1,-1.3565186E-1,1.47534E-1,7.9689704E-2,-1.6977654E-1,-9.7856835E-2,1.2333348E-1,-1.8503168E-1,1.4542317E-1,-1.4253819E-1,1.4528494E-1,3.3649452E-2,-1.350835E-1,-1.6867353E-1,1.469421E-1,-1.4254278E-1,8.6757414E-2,-1.1895578E-1,1.1425199E-1,1.112232E-1,-1.5888213E-1,-1.5236299E-1,1.284272E-1,-1.3800699E-1,1.6651988E-2,2.3942547E-2,1.795918E-1,1.7743877E-1,-1.6023503E-1,1.6276729E-1,3.914989E-2,6.6146925E-2,-8.783548E-2,1.4547674E-1,-1.8227391E-1,-1.4153604E-1,1.3467748E-1,-1.4731842E-1,1.4782076E-1,-9.0641655E-2,1.5192857E-1],"categories":[],"categories_nodes":[],"categories_segments":[],"categories_sizes":[],"default_left":[0,0,0,0,0,0,1,0,0,1,1,0,0,0,1,0,0,1,0,1,0,1,0,0,1,0,1,1,1,0,1,0,0,0,1,0,0,0,0,0,0,0,1,0,1,1,0,1,0,0,0,1,0,0,0,1,0,0,1,0,0,0,0,0,0,0,0,0,0,0,0,0,0,0,0,0,0,0,0,0,0,0,0,0,0,0,0,0,0,0,0,0,0,0,0,0,0,0,0,0,0,0,0,0,0,0,0],"id":2,"left_children":[1,3,5,7,9,11,13,15,17,19,21,23,25,27,29,31,33,35,37,39,-1,41,43,45,47,49,51,53,55,57,59,-1,-1,-1,61,63,-1,65,67,69,71,73,75,-1,77,79,81,83,-1,85,87,89,91,93,95,97,99,101,103,105,-1,-1,-1,-1,-1,-1,-1,-1,-1,-1,-1,-1,-1,-1,-1,-1,-1,-1,-1,-1,-1,-1,-1,-1,-1,-1,-1,-1,-1,-1,-1,-1,-1,-1,-1,-1,-1,-1,-1,-1,-1,-1,-1,-1,-1,-1,-1],"loss_changes":[9.420379E3,1.3519204E3,4.675525E3,3.0265942E2,4.7908984E2,2.9376455E3,3.8473828E3,3.7926636E1,1.1778628E2,4.872696E1,4.1645605E2,6.429161E2,3.8404492E2,2.281197E3,4.3927954E2,1.5362387E0,1.3159943E1,1.9824379E1,7.1035416E1,1.631366E1,0E0,2.7834863E2,1.9478874E1,7.084719E2,1.9342175E2,6.18375E1,3.1184766E2,1.0947644E2,1.435111E3,2.2599487E2,2.1035706E1,0E0,0E0,0E0,6.8693237E0,4.34391E0,0E0,6.142668E0,5.1226257E1,1.3954163E1,6.4579487E0,2.0950879E2,4.5447315E1,0E0,1.9736687E1,5.990805E1,5.110119E2,2.1331314E2,0E0,1.2501019E1,5.8066826E1,2.9860254E2,3.241962E1,6.536841E1,3.0385513E0,1.3362998E3,4.068512E1,3.4679413E1,2.0596729E2,1.7615448E1,0E0,0E0,0E0,0E0,0E0,0E0,0E0,0E0,0E0,0E0,0E0,0E0,0E0,0E0,0E0,0E0,0E0,0E0,0E0,0E0,0E0,0E0,0E0,0E0,0E0,0E0,0E0,0E0,0E0,0E0,0E0,0E0,0E0,0E0,0E0,0E0,0E0,0E0,0E0,0E0,0E0,0E0,0E0,0E0,0E0,0E0,0E0],"parents":[2147483647,0,0,1,1,2,2,3,3,4,4,5,5,6,6,7,7,8,8,9,9,10,10,11,11,12,12,13,13,14,14,15,15,16,16,17,17,18,18,19,19,21,21,22,22,23,23,24,24,25,25,26,26,27,27,28,28,29,29,30,30,34,34,35,35,37,37,38,38,39,39,40,40,41,41,42,42,44,44,45,45,46,46,47,47,49,49,50,50,51,51,52,52,53,53,54,54,55,55,56,56,57,57,58,58,59,59],"right_children":[2,4,6,8,10,12,14,16,18,20,22,24,26,28,30,32,34,36,38,40,-1,42,44,46,48,50,52,54,56,58,60,-1,-1,-1,62,64,-1,66,68,70,72,74,76,-1,78,80,82,84,-1,86,88,90,92,94,96,98,100,102,104,106,-1,-1,-1,-1,-1,-1,-1,-1,-1,-1,-1,-1,-1,-1,-1,-1,-1,-1,-1,-1,-1,-1,-1,-1,-1,-1,-1,-1,-1,-1,-1,-1,-1,-1,-1,-1,-1,-1,-1,-1,-1,-1,-1,-1,-1,-1,-1],"split_conditions":[2.00001E0,7.880977E-2,2.00001E0,7.879441E-2,2.3239774E-1,3.958216E-1,1.9302737E-2,1.4449441E-1,1.4210498E-1,7.183225E-2,2.0274041E-2,7.634234E-2,2.00001E0,1.1375548E0,7.340198E-2,3.368953E-2,3.0326253E-1,4.549513E-2,9.49912E-2,4.767031E-2,1.3649105E-1,4.661425E-2,1.7969753E-1,1.870998E-1,9.1369934E-2,5.5110343E-2,3.5366215E-2,7.873877E-2,4.0343907E-2,1.6067775E-1,5.43528E-2,3.380073E-3,1.3770981E-1,1.0146379E-1,5.7756595E-2,3.4167763E-2,1.2145002E-1,3.4210324E-2,9.0349756E-2,6.492837E-2,1.8209225E-1,5.813498E-1,1.4595278E-1,1.32845E-1,2.094787E-2,1.169391E-1,4.1254678E-1,2.2125939E-2,1.9648902E-1,4.810114E-2,1.870998E-1,4.756346E-2,3.2591054E-1,6.157609E-2,1.0904939E0,3.387322E-2,1.1909625E-1,1.0389852E-1,5.623394E-2,2.3268189E-1,-1.3117543E-1,-1.6668406E-1,3.271244E-2,2.2817314E-2,-1.6046153E-1,3.9570116E-2,-1.5709896E-1,-1.3565186E-1,1.47534E-1,7.9689704E-2,-1.6977654E-1,-9.7856835E-2,1.2333348E-1,-1.8503168E-1,1.4542317E-1,-1.4253819E-1,1.4528494E-1,3.3649452E-2,-1.350835E-1,-1.6867353E-1,1.469421E-1,-1.4254278E-1,8.6757414E-2,-1.1895578E-1,1.1425199E-1,1.112232E-1,-1.5888213E-1,-1.5236299E-1,1.284272E-1,-1.3800699E-1,1.6651988E-2,2.3942547E-2,1.795918E-1,1.7743877E-1,-1.6023503E-1,1.6276729E-1,3.914989E-2,6.6146925E-2,-8.783548E-2,1.4547674E-1,-1.8227391E-1,-1.4153604E-1,1.3467748E-1,-1.4731842E-1,1.4782076E-1,-9.0641655E-2,1.5192857E-1],"split_indices":[2814,9300,2101,8030,9907,3426,8900,5783,7232,9784,3266,2101,2837,1564,9401,2820,2031,3426,8591,2157,0,795,9281,9907,1840,7985,8951,331,795,6758,4675,0,0,0,5131,5085,0,2157,9907,6707,4883,4453,2819,0,5914,916,3728,9666,0,8891,9907,5841,5914,1420,1801,9414,5381,4074,7126,4883,0,0,0,0,0,0,0,0,0,0,0,0,0,0,0,0,0,0,0,0,0,0,0,0,0,0,0,0,0,0,0,0,0,0,0,0,0,0,0,0,0,0,0,0,0,0,0],"split_type":[0,0,0,0,0,0,0,0,0,0,0,0,0,0,0,0,0,0,0,0,0,0,0,0,0,0,0,0,0,0,0,0,0,0,0,0,0,0,0,0,0,0,0,0,0,0,0,0,0,0,0,0,0,0,0,0,0,0,0,0,0,0,0,0,0,0,0,0,0,0,0,0,0,0,0,0,0,0,0,0,0,0,0,0,0,0,0,0,0,0,0,0,0,0,0,0,0,0,0,0,0,0,0,0,0,0,0],"sum_hessian":[2.3853865E4,5.0861396E3,1.8767725E4,3.2180032E2,4.7643394E3,7.724786E3,1.1042938E4,1.9420988E2,1.2759042E2,7.02221E1,4.694117E3,1.9969823E3,5.7278037E3,9.306672E3,1.736267E3,4.5337167E0,1.8967616E2,2.9785725E1,9.78047E1,6.44174E1,5.804706E0,4.625358E3,6.8759186E1,1.4896315E3,5.0735095E2,9.5147415E1,5.6326562E3,6.173726E2,8.6893E3,1.672841E3,6.3426056E1,1.1182328E0,3.4154837E0,1.25089E0,1.8842528E2,2.7612509E1,2.1732147E0,1.1432146E1,8.637255E1,6.073082E1,3.686573E0,4.580572E3,4.478639E1,2.4965115E0,6.626268E1,1.5501447E2,1.334617E3,4.8495844E2,2.239251E1,1.294736E1,8.220005E1,5.5792026E3,5.3453766E1,6.048971E2,1.2475503E1,8.417356E3,2.7194305E2,3.841528E1,1.6344257E3,6.1197083E1,2.2289746E0,1.8698515E2,1.4401306E0,1.1132228E0,2.6499287E1,1.4438928E0,9.988254E0,6.164317E0,8.020824E1,1.7765563E0,5.8954266E1,1.2219214E0,2.4646516E0,1.8458242E1,4.5621133E3,3.9260918E1,5.52547E0,7.4410686E0,5.8821606E1,1.4948438E2,5.530099E0,1.0462709E2,1.2299899E3,4.4271896E2,4.2239464E1,1.2598312E0,1.168753E1,7.316414E0,7.4883644E1,5.451649E3,1.2755339E2,2.5663147E1,2.779062E1,5.0086255E0,5.998885E2,9.024251E0,3.451252E0,7.810798E3,6.065583E2,3.1439135E0,2.6879916E2,4.39399E0,3.402129E1,1.6111865E3,2.3239035E1,2.5207539E0,5.8676327E1],"tree_param":{"num_deleted":"0","num_feature":"10000","num_nodes":"107","size_leaf_vector":"1"}},{"base_weights":[-1.6670629E-4,1.1187168E0,-2.9913574E-1,-7.225656E-1,1.2424644E0,7.921613E-2,-8.5325426E-1,-1.456057E0,3.886741E-1,-9.1665715E-1,1.2856183E0,-1.1393474E0,3.1885114E-1,1.0609769E-1,-1.1955469E0,1.0407997E0,-1.5223053E0,-1.201162E0,8.7926495E-1,1.270185E0,-1.3205274E0,1.3343765E0,-2.970498E-1,1.35884E0,-1.2424747E0,-1.3933758E0,4.3152836E-1,1.1762402E0,-1.7200379E-1,-1.2261752E0,9.0753907E-1,1.3076529E-1,-6.7839323E-4,-1.5446835E0,9.808052E-2,-1.4229172E0,1.1469567E-1,-1.1841387E0,1.1782382E0,-4.5039814E-2,1.4354317E-1,-1.5487623E0,5.7557166E-1,1.3995187E0,4.7555834E-1,1.4681216E0,-5.317675E-1,-1.2479164E-1,1.4936891E0,-1.3512917E0,4.2055422E-1,-1.4680276E0,8.80348E-1,6.541279E-1,-2.61281E-1,1.4027213E0,1.2018511E-1,-3.723841E-1,1.3825974E0,-1.6258293E0,-1.0966129E0,1.239116E-1,1.6699648E0,5.274747E-2,-1.5675114E-1,-1.5013815E-1,2.4253296E-2,5.6163926E-2,-1.4089355E-1,-1.1018374E-1,1.37047E-1,-1.6002664E-1,7.8710996E-2,1.00324266E-1,-9.2759475E-2,-1.9025727E-1,1.4123988E-1,-1.7430127E-1,5.7266723E-2,1.554312E-1,1.38739785E-2,4.5553025E-2,-9.992852E-2,-1.0604503E-1,1.5813544E-1,-1.3908237E-1,1.10890746E-1,7.084966E-2,-1.538806E-1,-1.495926E-1,1.7156015E-1,1.674069E-1,-1.8093428E-2,7.39936E-2,-1.3322164E-1,1.407138E-1,-5.447175E-2,-3.4855694E-2,1.4709896E-1,1.479158E-1,-3.8071573E-2,-1.406977E-1,-1.2017431E-2,-1.638818E-1,1.5335827E-1,-1.6286421E-1,2.5574831E-2,-1.2836178E-1,-5.8294445E-2,-3.0918354E-2,2.1150528E-1,1.7962085E-1,-7.248414E-2],"categories":[],"categories_nodes":[],"categories_segments":[],"categories_sizes":[],"default_left":[0,0,1,0,0,0,0,0,0,0,1,0,0,0,1,1,1,1,0,0,0,1,0,0,1,1,1,1,1,0,1,0,0,0,0,1,0,1,0,0,0,1,0,0,0,0,1,0,0,1,1,1,0,1,0,0,0,0,0,1,1,1,1,0,0,0,0,0,0,0,0,0,0,0,0,0,0,0,0,0,0,0,0,0,0,0,0,0,0,0,0,0,0,0,0,0,0,0,0,0,0,0,0,0,0,0,0,0,0,0,0,0,0],"id":3,"left_children":[1,3,5,7,9,11,13,15,17,19,21,23,25,27,29,31,33,35,37,39,41,43,45,47,49,51,53,55,57,59,61,-1,-1,63,-1,65,-1,67,69,-1,-1,71,73,75,77,79,81,-1,83,85,87,89,91,93,95,97,99,101,103,105,107,109,111,-1,-1,-1,-1,-1,-1,-1,-1,-1,-1,-1,-1,-1,-1,-1,-1,-1,-1,-1,-1,-1,-1,-1,-1,-1,-1,-1,-1,-1,-1,-1,-1,-1,-1,-1,-1,-1,-1,-1,-1,-1,-1,-1,-1,-1,-1,-1,-1,-1,-1],"loss_changes":[7.848292E3,1.1281372E3,3.8817173E3,2.5502019E2,4.3313623E2,3.213432E3,2.4670698E3,3.272574E1,9.8486336E1,8.242578E1,3.511709E2,4.6760254E2,1.774739E3,5.884165E2,3.5777393E2,1.5352135E0,1.1810791E1,1.7190582E1,6.0640892E1,4.8437786E0,3.4501266E1,2.4604883E2,5.7405922E1,2.7233994E1,3.149568E2,9.770752E1,1.3308937E3,9.737079E1,4.894814E2,2.8083105E2,4.7622925E1,0E0,0E0,9.462677E0,0E0,3.9901505E0,0E0,5.756872E0,3.8496033E1,0E0,0E0,9.631912E0,6.7634172E0,1.7700098E2,6.830857E1,1.6527328E0,5.6474712E1,0E0,1.7144135E1,1.6015112E2,6.17156E1,5.1446655E1,1.603982E1,1.1141262E3,9.933512E2,4.0648438E1,5.0329075E1,3.6284967E2,8.436841E1,7.477539E0,3.954756E2,3.5630173E1,1.3545288E1,0E0,0E0,0E0,0E0,0E0,0E0,0E0,0E0,0E0,0E0,0E0,0E0,0E0,0E0,0E0,0E0,0E0,0E0,0E0,0E0,0E0,0E0,0E0,0E0,0E0,0E0,0E0,0E0,0E0,0E0,0E0,0E0,0E0,0E0,0E0,0E0,0E0,0E0,0E0,0E0,0E0,0E0,0E0,0E0,0E0,0E0,0E0,0E0,0E0,0E0],"parents":[2147483647,0,0,1,1,2,2,3,3,4,4,5,5,6,6,7,7,8,8,9,9,10,10,11,11,12,12,13,13,14,14,15,15,16,16,17,17,18,18,19,19,20,20,21,21,22,22,23,23,24,24,25,25,26,26,27,27,28,28,29,29,30,30,33,33,35,35,37,37,38,38,41,41,42,42,43,43,44,44,45,45,46,46,48,48,49,49,50,50,51,51,52,52,53,53,54,54,55,55,56,56,57,57,58,58,59,59,60,60,61,61,62,62],"right_children":[2,4,6,8,10,12,14,16,18,20,22,24,26,28,30,32,34,36,38,40,42,44,46,48,50,52,54,56,58,60,62,-1,-1,64,-1,66,-1,68,70,-1,-1,72,74,76,78,80,82,-1,84,86,88,90,92,94,96,98,100,102,104,106,108,110,112,-1,-1,-1,-1,-1,-1,-1,-1,-1,-1,-1,-1,-1,-1,-1,-1,-1,-1,-1,-1,-1,-1,-1,-1,-1,-1,-1,-1,-1,-1,-1,-1,-1,-1,-1,-1,-1,-1,-1,-1,-1,-1,-1,-1,-1,-1,-1,-1,-1,-1],"split_conditions":[2.00001E0,7.880977E-2,6.701822E-3,7.879441E-2,9.7155017E-1,1.3444813E0,4.2139512E-1,1.4449441E-1,1.4210498E-1,1.8997806E-1,2.846658E-2,2.5003245E-1,1.1375548E0,9.879837E-1,3.94574E-2,7.2531156E-2,4.213899E-2,4.549513E-2,1.9287974E0,1.0260776E-1,2.00001E0,4.7981147E-2,2.0204602E-1,2.4281906E-1,3.317614E-2,5.08837E-2,5.7449486E-2,1.0753984E-1,1.6455023E-2,6.1579585E-1,4.38508E-2,1.3076529E-1,-6.7839323E-4,8.3327815E-2,9.808052E-2,5.7485774E-2,1.1469567E-1,3.6955765E-3,9.49912E-2,-4.5039814E-2,1.4354317E-1,7.4257545E-2,1.1609215E-1,5.664727E-1,1E0,2.1362658E-1,3.0894402E-2,-1.2479164E-1,1.4511195E-1,7.390637E-2,3.6305163E-2,5.9560794E-2,2.888453E-1,3.1212298E-2,3.0562726E-1,1.5585878E-1,2.0523427E-1,2.731679E-1,1.03092134E-1,5.8647405E-2,3.148838E-2,2.5806837E-2,8.249452E-2,5.274747E-2,-1.5675114E-1,-1.5013815E-1,2.4253296E-2,5.6163926E-2,-1.4089355E-1,-1.1018374E-1,1.37047E-1,-1.6002664E-1,7.8710996E-2,1.00324266E-1,-9.2759475E-2,-1.9025727E-1,1.4123988E-1,-1.7430127E-1,5.7266723E-2,1.554312E-1,1.38739785E-2,4.5553025E-2,-9.992852E-2,-1.0604503E-1,1.5813544E-1,-1.3908237E-1,1.10890746E-1,7.084966E-2,-1.538806E-1,-1.495926E-1,1.7156015E-1,1.674069E-1,-1.8093428E-2,7.39936E-2,-1.3322164E-1,1.407138E-1,-5.447175E-2,-3.4855694E-2,1.4709896E-1,1.479158E-1,-3.8071573E-2,-1.406977E-1,-1.2017431E-2,-1.638818E-1,1.5335827E-1,-1.6286421E-1,2.5574831E-2,-1.2836178E-1,-5.8294445E-2,-3.0918354E-2,2.1150528E-1,1.7962085E-1,-7.248414E-2],"split_indices":[2814,9300,2101,8030,5108,8900,3426,5783,7232,4870,6395,6724,1564,5459,5799,5085,7300,3426,9848,7972,9346,2101,5700,6395,1647,1801,5914,5914,9666,9907,7277,0,0,9822,0,1511,0,9346,8591,0,0,7503,5107,2493,795,6380,5914,0,4795,1511,3728,1124,3426,3364,6707,8939,8077,8900,6395,6753,9346,2031,6014,0,0,0,0,0,0,0,0,0,0,0,0,0,0,0,0,0,0,0,0,0,0,0,0,0,0,0,0,0,0,0,0,0,0,0,0,0,0,0,0,0,0,0,0,0,0,0,0,0,0],"split_type":[0,0,0,0,0,0,0,0,0,0,0,0,0,0,0,0,0,0,0,0,0,0,0,0,0,0,0,0,0,0,0,0,0,0,0,0,0,0,0,0,0,0,0,0,0,0,0,0,0,0,0,0,0,0,0,0,0,0,0,0,0,0,0,0,0,0,0,0,0,0,0,0,0,0,0,0,0,0,0,0,0,0,0,0,0,0,0,0,0,0,0,0,0,0,0,0,0,0,0,0,0,0,0,0,0,0,0,0,0,0,0,0,0],"sum_hessian":[2.3459943E4,4.9461963E3,1.8513748E4,3.1118137E2,4.6350146E3,1.1002264E4,7.5114844E3,1.872643E2,1.2391707E2,9.04271E1,4.544588E3,1.8074546E3,9.194809E3,1.9754716E3,5.5360127E3,4.4599776E0,1.8280432E2,2.887965E1,9.5037415E1,1.3762432E1,7.666467E1,4.4089165E3,1.3567125E2,7.11725E1,1.7362821E3,5.670242E2,8.627784E3,4.068132E2,1.5686584E3,5.456957E3,7.9055626E1,3.35667E0,1.1033077E0,1.8156401E2,1.2403109E0,2.6747635E1,2.1320155E0,1.1652872E1,8.3384544E1,1.0547312E0,1.2707701E1,6.8591446E1,8.07322E0,4.0974883E3,3.1142804E2,1.5306369E1,1.2036488E2,3.0947123E0,6.807779E1,1.6298252E3,1.0645694E2,5.493423E2,1.76819E1,6.5298125E3,2.0979722E3,3.3470438E2,7.210881E1,1.3902257E3,1.7843266E2,1.3331401E3,4.123817E3,3.955904E1,3.9496586E1,1.7375247E0,1.7982648E2,2.5638254E1,1.1093816E0,1.1583858E0,1.0494487E1,6.1155643E0,7.726898E1,6.7419815E1,1.171631E0,6.543957E0,1.5292627E0,1.5350565E1,4.082138E3,1.2349083E1,2.9907898E2,1.4215511E1,1.0908576E0,3.8688553E1,8.167633E1,1.890856E0,6.618693E1,1.604478E3,2.534708E1,9.3373436E1,1.3083508E1,5.450957E2,4.246577E0,9.785806E0,7.896095E0,6.2600137E3,2.697987E2,3.0407892E2,1.7938932E3,1.2403862E1,3.223005E2,1.8894352E1,5.321446E1,2.7158304E2,1.1186427E3,8.0232115E0,1.7040945E2,1.3312844E3,1.8556795E0,3.0221E3,1.101717E3,3.318554E1,6.3735003E0,3.77562E1,1.7403862E0],"tree_param":{"num_deleted":"0","num_feature":"10000","num_nodes":"113","size_leaf_vector":"1"}},{"base_weights":[-2.76179E-4,1.0445461E0,-2.7458033E-1,-6.795699E-1,1.1595709E0,-1.4877656E0,-1.2411689E-1,-1.3740792E0,3.6257026E-1,-1.1459506E0,1.1951791E0,1.4885576E-1,-1.5384963E0,6.505111E-2,-1.1611902E0,9.7789735E-1,-1.4381878E0,-7.6407206E-1,9.778738E-1,-1.420335E0,9.414761E-1,1.2449452E0,-3.0173886E-1,-1.5515734E0,9.046291E-1,2.599903E-1,-1.0297787E0,-1.2146175E0,1.4768656E0,1.24683954E-1,-4.396579E-3,-1.4601804E0,9.346276E-2,-1.0732379E0,1.1687616E0,-1.2319394E-1,1.1900587E0,-1.495891E0,9.67824E-2,1.3086128E-1,-7.962728E-2,-7.740943E-1,1.2731119E0,7.7286017E-1,-6.317146E-1,-1.5579511E0,1.426606E-1,1.5474533E-1,-1.0944694E-1,9.744793E-1,1.4901536E-2,-1.1697016E0,4.7174264E-2,-1.2490833E0,1.7686673E0,-5.585487E-1,1.6225766E0,4.9462207E-2,-1.4826895E-1,-1.2989633E-1,6.132859E-2,1.0042901E-2,1.3518237E-1,-1.0732921E-1,1.3219142E-1,8.020497E-2,-1.5784425E-1,-1.9346584E-1,1.0511769E-1,-1.1076724E-1,1.290488E-1,1.0650032E-1,-1.01594165E-1,2.8011093E-2,-9.305533E-2,1.3648836E-1,-1.563195E-1,-1.1910965E-1,1.0475989E-1,1.647195E-1,-1.3664921E-2,7.472671E-2,-1.23179555E-1,-6.013297E-2,1.1114693E-1,1.7262542E-1,-1.279665E-1,4.4393845E-2,1.8067092E-1,-1.1780771E-1,5.6182146E-2,-4.62224E-2,1.6884623E-1],"categories":[],"categories_nodes":[],"categories_segments":[],"categories_sizes":[],"default_left":[0,0,0,0,0,0,1,0,0,1,1,0,1,1,1,1,1,1,0,1,1,0,0,1,0,0,1,1,0,0,0,0,0,1,0,0,0,0,0,0,0,1,0,1,1,0,0,0,0,0,0,0,0,0,0,1,0,0,0,0,0,0,0,0,0,0,0,0,0,0,0,0,0,0,0,0,0,0,0,0,0,0,0,0,0,0,0,0,0,0,0,0,0],"id":4,"left_children":[1,3,5,7,9,11,13,15,17,19,21,-1,23,25,27,29,31,33,35,37,39,41,43,45,47,49,51,53,55,-1,-1,57,-1,59,61,-1,63,65,-1,-1,-1,67,69,71,73,75,-1,-1,-1,77,79,81,83,85,87,89,91,-1,-1,-1,-1,-1,-1,-1,-1,-1,-1,-1,-1,-1,-1,-1,-1,-1,-1,-1,-1,-1,-1,-1,-1,-1,-1,-1,-1,-1,-1,-1,-1,-1,-1,-1,-1],"loss_changes":[6.5851533E3,9.4832227E2,3.3218574E3,2.172353E2,3.6911182E2,3.054746E2,3.1766426E3,2.853305E1,8.431331E1,4.065248E1,3.2903564E2,0E0,6.449658E1,2.9231428E3,3.53864E2,1.5303144E0,1.0525055E1,2.7034418E1,3.8229225E1,1.2466522E1,6.513363E0,2.4382178E2,5.110939E1,3.953955E1,1.6016724E1,2.0358457E3,3.1200122E2,2.5400757E2,1.5746269E1,0E0,0E0,8.403412E0,0E0,1.5153992E1,1.1213369E0,0E0,2.2919472E1,1.25694275E1,0E0,0E0,0E0,1.2780342E2,1.7565918E2,1.8843649E1,3.0172024E1,3.2188477E1,0E0,0E0,0E0,4.7144116E2,2.1418904E3,2.1900146E2,1.6562173E2,2.2254468E2,6.282959E-1,3.4984078E0,7.229431E0,0E0,0E0,0E0,0E0,0E0,0E0,0E0,0E0,0E0,0E0,0E0,0E0,0E0,0E0,0E0,0E0,0E0,0E0,0E0,0E0,0E0,0E0,0E0,0E0,0E0,0E0,0E0,0E0,0E0,0E0,0E0,0E0,0E0,0E0,0E0,0E0],"parents":[2147483647,0,0,1,1,2,2,3,3,4,4,5,5,6,6,7,7,8,8,9,9,10,10,12,12,13,13,14,14,15,15,16,16,17,17,18,18,19,19,20,20,21,21,22,22,23,23,24,24,25,25,26,26,27,27,28,28,31,31,33,33,34,34,36,36,37,37,41,41,42,42,43,43,44,44,45,45,49,49,50,50,51,51,52,52,53,53,54,54,55,55,56,56],"right_children":[2,4,6,8,10,12,14,16,18,20,22,-1,24,26,28,30,32,34,36,38,40,42,44,46,48,50,52,54,56,-1,-1,58,-1,60,62,-1,64,66,-1,-1,-1,68,70,72,74,76,-1,-1,-1,78,80,82,84,86,88,90,92,-1,-1,-1,-1,-1,-1,-1,-1,-1,-1,-1,-1,-1,-1,-1,-1,-1,-1,-1,-1,-1,-1,-1,-1,-1,-1,-1,-1,-1,-1,-1,-1,-1,-1,-1,-1],"split_conditions":[2.00001E0,7.880977E-2,6.1579585E-1,7.879441E-2,2.3239774E-1,1.9838125E-1,1.9302737E-2,1.4449441E-1,1.7049047E-1,5.2783247E-2,2.846658E-2,1.4885576E-1,1.0350113E-1,6.9416724E-2,3.365915E-2,5.286837E-2,4.213899E-2,1.2156579E-2,8.398719E-2,6.1441686E-2,4.6254963E-2,5.927844E-1,4.717248E-1,7.5939134E-2,1.1756877E-1,4.2698705E-1,6.815192E-2,7.703631E-2,1.2882875E-1,1.24683954E-1,-4.396579E-3,8.3327815E-2,9.346276E-2,6.121311E-2,3.593081E-2,-1.2319394E-1,7.88595E-2,8.784135E-2,9.67824E-2,1.3086128E-1,-7.962728E-2,3.853802E-2,2.5112823E-1,1.6241781E-1,1.8166972E-2,1.4913605E-1,1.426606E-1,1.5474533E-1,-1.0944694E-1,4.1254678E-1,1.9451362E0,3.8175866E-1,4.5143718E-1,1.1763196E-1,5.3863537E-2,1.10196434E-1,5.865842E-2,4.9462207E-2,-1.4826895E-1,-1.2989633E-1,6.132859E-2,1.0042901E-2,1.3518237E-1,-1.0732921E-1,1.3219142E-1,8.020497E-2,-1.5784425E-1,-1.9346584E-1,1.0511769E-1,-1.1076724E-1,1.290488E-1,1.0650032E-1,-1.01594165E-1,2.8011093E-2,-9.305533E-2,1.3648836E-1,-1.563195E-1,-1.1910965E-1,1.0475989E-1,1.647195E-1,-1.3664921E-2,7.472671E-2,-1.23179555E-1,-6.013297E-2,1.1114693E-1,1.7262542E-1,-1.279665E-1,4.4393845E-2,1.8067092E-1,-1.1780771E-1,5.6182146E-2,-4.62224E-2,1.6884623E-1],"split_indices":[2814,9300,9907,8030,9907,8121,8900,5783,2788,6308,6395,0,1005,2101,1934,7432,7300,3426,7585,3961,4883,3728,3426,6374,3426,3426,9346,7398,4795,0,0,9822,0,8005,2749,0,2023,7697,0,0,0,9363,2246,5914,5914,2297,0,0,0,3728,8165,9666,5914,8951,2532,396,4550,0,0,0,0,0,0,0,0,0,0,0,0,0,0,0,0,0,0,0,0,0,0,0,0,0,0,0,0,0,0,0,0,0,0,0,0],"split_type":[0,0,0,0,0,0,0,0,0,0,0,0,0,0,0,0,0,0,0,0,0,0,0,0,0,0,0,0,0,0,0,0,0,0,0,0,0,0,0,0,0,0,0,0,0,0,0,0,0,0,0,0,0,0,0,0,0,0,0,0,0,0,0,0,0,0,0,0,0,0,0,0,0,0,0,0,0,0,0,0,0,0,0,0,0,0,0,0,0,0,0,0,0],"sum_hessian":[2.2974879E4,4.7768994E3,1.8197979E4,2.9845325E2,4.4784463E3,2.0069637E3,1.6191016E4,1.7890666E2,1.1954657E2,6.76421E1,4.410804E3,3.3159966E1,1.9738038E3,1.3694076E4,2.4969392E3,4.368916E0,1.7453775E2,4.2141758E1,7.7404816E1,6.0066196E1,7.5759E0,4.2690454E3,1.4175906E2,1.9636581E3,1.0145774E1,1.1624964E4,2.0691125E3,2.4479026E3,4.903665E1,3.284351E0,1.0845647E0,1.7331598E2,1.221765E0,3.6713924E1,5.4278326E0,6.360193E0,7.1044624E1,5.858628E1,1.479916E0,6.458379E0,1.1175213E0,5.8371716E1,4.2106733E3,3.2988037E1,1.0877103E2,1.9599377E3,3.7202966E0,7.84809E0,2.2976835E0,2.9684082E3,8.656556E3,1.8311188E3,2.3799379E2,2.4205198E3,2.7382826E1,3.0866365E0,4.5950012E1,1.7342132E0,1.7158177E2,3.258282E1,4.131106E0,1.0205587E0,4.407274E0,3.5179386E0,6.752668E1,1.7294277E0,5.6856853E1,3.564658E1,2.2725136E1,3.0053974E1,4.1806196E3,2.8704683E1,4.283355E0,2.6864359E1,8.190667E1,3.0456765E0,1.9568921E3,9.645372E1,2.8719543E3,7.3459985E2,7.9219556E3,5.7105965E1,1.7740128E3,1.4815431E2,8.983947E1,2.4061737E1,2.396458E3,1.1180712E0,2.6264753E1,1.9544064E0,1.1322303E0,1.223383E0,4.472663E1],"tree_param":{"num_deleted":"0","num_feature":"10000","num_nodes":"93","size_leaf_vector":"1"}},{"base_weights":[-2.528329E-4,9.798179E-1,-2.5191543E-1,-6.421086E-1,1.0872079E0,-7.400253E-1,7.735626E-2,-1.3066274E0,3.3901566E-1,-8.9219123E-1,1.1278825E0,9.4173245E-2,-1.0465034E0,-9.899206E-1,2.753083E-1,9.215103E-1,-1.3692678E0,-1.0736955E0,7.7265173E-1,1.1268126E0,-1.2533104E0,-9.299902E-1,1.1607482E0,1.0623492E0,-1.4910837E-1,-1.0883192E0,4.03049E-1,1.2578198E0,-1.0855871E0,4.0862274E-1,-9.698086E-1,1.188663E-1,-6.4545395E-3,8.986682E-2,-1.391208E0,-1.2807344E0,1.04155675E-1,-1.0732667E0,1.044453E0,-4.9128268E-2,1.2958167E0,-1.4629292E0,4.6951488E-1,1.3051744E-1,-1.0470227E0,-7.4403864E-1,1.1892537E0,1.2955781E0,1.8702525E-1,1.155072E0,-3.452675E-1,-1.1241949E0,4.192891E-1,-1.4166437E-1,6.8418056E-1,-1.1232747E-1,1.3795258E0,-1.1868842E0,3.9160764E-1,8.5922235E-1,7.6667085E-2,-1.247794E0,1.1071489E0,-1.4076963E-1,3.129313E-2,2.7089668E-2,-1.3600539E-1,-1.2962662E-1,5.6720223E-2,-9.736807E-2,1.2186118E-1,3.852981E-2,1.3452946E-1,7.364476E-2,-1.5131128E-1,8.881616E-2,-9.2879385E-2,9.957213E-2,-1.150887E-1,-1.7440873E-1,1.0775961E-1,1.2559311E-1,4.956865E-2,-2.3451759E-2,1.3559946E-1,-1.5346418E-1,5.0477922E-2,1.5517673E-1,5.5808093E-2,2.0793244E-2,-7.198761E-2,-1.1413451E-1,1.9418679E-1,2.0368198E-1,-1.2161213E-2,1.3673834E-2,1.3997696E-1,-9.591224E-2,1.4593384E-1,1.5821038E-1,-1.2253109E-1,7.8334905E-2,-8.754393E-2,1.0010969E-1,-1.2362482E-1,1.549983E-1,-1.5796667E-2,-1.341866E-1,1.5333459E-1,1.306291E-1,-1.2980089E-1],"categories":[],"categories_nodes":[],"categories_segments":[],"categories_sizes":[],"default_left":[0,0,0,0,0,0,0,0,0,0,0,0,1,0,1,0,0,1,0,0,0,0,0,1,0,1,0,0,1,0,1,0,0,0,1,0,0,1,0,0,0,0,0,0,0,1,1,0,0,0,0,1,0,0,1,0,0,0,1,1,0,1,1,0,0,0,0,0,0,0,0,0,0,0,0,0,0,0,0,0,0,0,0,0,0,0,0,0,0,0,0,0,0,0,0,0,0,0,0,0,0,0,0,0,0,0,0,0,0,0,0],"id":5,"left_children":[1,3,5,7,9,11,13,15,17,19,21,23,25,27,29,31,33,35,37,39,41,43,45,47,49,51,53,55,57,59,61,-1,-1,-1,63,65,-1,67,69,-1,71,73,75,-1,77,79,81,83,85,87,89,91,93,-1,95,-1,97,99,101,103,105,107,109,-1,-1,-1,-1,-1,-1,-1,-1,-1,-1,-1,-1,-1,-1,-1,-1,-1,-1,-1,-1,-1,-1,-1,-1,-1,-1,-1,-1,-1,-1,-1,-1,-1,-1,-1,-1,-1,-1,-1,-1,-1,-1,-1,-1,-1,-1,-1,-1],"loss_changes":[5.5464424E3,8.009658E2,2.875807E3,1.8687341E2,3.479756E2,1.8429202E3,2.2578662E3,2.5084717E1,7.205127E1,6.508651E1,2.8671143E2,4.5653204E2,3.1996094E2,3.6091772E2,1.4967756E3,1.4636884E0,9.531189E0,1.3475248E1,4.6043823E1,4.4041157E0,2.7611626E1,1.8877983E1,2.2661377E2,7.921738E1,3.9676373E2,2.776045E2,7.69544E1,2.146524E1,2.4053284E2,1.2180474E3,5.049328E2,0E0,0E0,0E0,5.0828857E0,3.5315132E0,0E0,5.1196213E0,2.8795723E1,0E0,5.6007385E-2,8.477432E0,6.002372E0,0E0,1.4760193E1,1.1466722E2,1.888164E2,2.8713074E1,4.621233E1,4.716104E1,2.7940732E2,2.6540283E2,1.0508522E2,0E0,5.047289E1,0E0,1.3687164E1,1.617185E2,5.2161995E1,1.0282026E3,1.6216094E3,2.0342493E2,5.1260185E1,0E0,0E0,0E0,0E0,0E0,0E0,0E0,0E0,0E0,0E0,0E0,0E0,0E0,0E0,0E0,0E0,0E0,0E0,0E0,0E0,0E0,0E0,0E0,0E0,0E0,0E0,0E0,0E0,0E0,0E0,0E0,0E0,0E0,0E0,0E0,0E0,0E0,0E0,0E0,0E0,0E0,0E0,0E0,0E0,0E0,0E0,0E0,0E0],"parents":[2147483647,0,0,1,1,2,2,3,3,4,4,5,5,6,6,7,7,8,8,9,9,10,10,11,11,12,12,13,13,14,14,15,15,16,16,17,17,18,18,19,19,20,20,21,21,22,22,23,23,24,24,25,25,26,26,27,27,28,28,29,29,30,30,34,34,35,35,37,37,38,38,40,40,41,41,42,42,44,44,45,45,46,46,47,47,48,48,49,49,50,50,51,51,52,52,54,54,56,56,57,57,58,58,59,59,60,60,61,61,62,62],"right_children":[2,4,6,8,10,12,14,16,18,20,22,24,26,28,30,32,34,36,38,40,42,44,46,48,50,52,54,56,58,60,62,-1,-1,-1,64,66,-1,68,70,-1,72,74,76,-1,78,80,82,84,86,88,90,92,94,-1,96,-1,98,100,102,104,106,108,110,-1,-1,-1,-1,-1,-1,-1,-1,-1,-1,-1,-1,-1,-1,-1,-1,-1,-1,-1,-1,-1,-1,-1,-1,-1,-1,-1,-1,-1,-1,-1,-1,-1,-1,-1,-1,-1,-1,-1,-1,-1,-1,-1,-1,-1,-1,-1,-1],"split_conditions":[2.00001E0,7.880977E-2,2.00001E0,7.879441E-2,9.7155017E-1,4.2139512E-1,1.3444813E0,1.4449441E-1,1.4210498E-1,1.8997806E-1,8.994505E-1,9.879837E-1,3.7877858E-2,2.5003245E-1,5.550182E-3,3.9338537E-2,3.0326253E-1,4.549513E-2,1.9287974E0,9.035198E-2,2.00001E0,9.158444E-2,5.927844E-1,9.1825485E-2,3.6380062E-1,4.624065E-2,1.7134278E-1,2.4281906E-1,3.317614E-2,3.7004238E-1,1.4923397E-2,1.188663E-1,-6.4545395E-3,8.986682E-2,5.7756595E-2,3.4167763E-2,1.04155675E-1,4.9322832E-2,9.49912E-2,-4.9128268E-2,6.273618E-2,9.292877E-2,1.1609215E-1,1.3051744E-1,1.63493E-1,3.853802E-2,4.1924033E-2,1.5585878E-1,3.1891218E-1,4.55082E-1,1.4598759E-1,9.896983E-2,1.4463693E-1,-1.4166437E-1,5.9425373E-2,-1.1232747E-1,1.4511195E-1,4.018056E-1,3.6625218E-2,1.4764387E-2,1.9451362E0,1.6841327E-1,1.9701084E-2,-1.4076963E-1,3.129313E-2,2.7089668E-2,-1.3600539E-1,-1.2962662E-1,5.6720223E-2,-9.736807E-2,1.2186118E-1,3.852981E-2,1.3452946E-1,7.364476E-2,-1.5131128E-1,8.881616E-2,-9.2879385E-2,9.957213E-2,-1.150887E-1,-1.7440873E-1,1.0775961E-1,1.2559311E-1,4.956865E-2,-2.3451759E-2,1.3559946E-1,-1.5346418E-1,5.0477922E-2,1.5517673E-1,5.5808093E-2,2.0793244E-2,-7.198761E-2,-1.1413451E-1,1.9418679E-1,2.0368198E-1,-1.2161213E-2,1.3673834E-2,1.3997696E-1,-9.591224E-2,1.4593384E-1,1.5821038E-1,-1.2253109E-1,7.8334905E-2,-8.754393E-2,1.0010969E-1,-1.2362482E-1,1.549983E-1,-1.5796667E-2,-1.341866E-1,1.5333459E-1,1.306291E-1,-1.2980089E-1],"split_indices":[2814,9300,2101,8030,5108,3426,8900,5783,7232,4870,3266,5459,9822,6724,4883,2101,2031,3426,9848,1564,9346,4480,3728,5914,6715,331,9907,6395,1647,9346,1511,0,0,0,5131,5085,0,4728,8591,0,290,4340,5107,0,9869,9363,2101,8939,3728,8714,9346,5720,7584,0,9346,0,4795,6508,4675,9300,8165,3489,3364,0,0,0,0,0,0,0,0,0,0,0,0,0,0,0,0,0,0,0,0,0,0,0,0,0,0,0,0,0,0,0,0,0,0,0,0,0,0,0,0,0,0,0,0,0,0,0,0],"split_type":[0,0,0,0,0,0,0,0,0,0,0,0,0,0,0,0,0,0,0,0,0,0,0,0,0,0,0,0,0,0,0,0,0,0,0,0,0,0,0,0,0,0,0,0,0,0,0,0,0,0,0,0,0,0,0,0,0,0,0,0,0,0,0,0,0,0,0,0,0,0,0,0,0,0,0,0,0,0,0,0,0,0,0,0,0,0,0,0,0,0,0,0,0,0,0,0,0,0,0,0,0,0,0,0,0,0,0,0,0,0,0],"sum_hessian":[2.2485355E4,4.5935225E3,1.7891834E4,2.8494705E2,4.308575E3,7.206993E3,1.0684841E4,1.6968623E2,1.1526082E2,8.633257E1,4.2222427E3,1.9365682E3,5.270425E3,1.6710763E3,9.013765E3,4.265078E0,1.6542116E2,2.6723677E1,8.853714E1,1.2776925E1,7.355565E1,6.5943054E1,4.1563E3,3.8822028E2,1.548348E3,5.1228926E3,1.4753241E2,6.7723564E1,1.6033528E3,8.1426084E3,8.711558E2,3.194199E0,1.0708787E0,1.2020965E0,1.6421906E2,2.4700537E1,2.023141E0,1.0984949E1,7.755219E1,1.0279636E0,1.1748961E1,6.571131E1,7.8443413E0,2.7758472E0,6.3167206E1,6.0912697E1,4.095387E3,3.0616333E2,8.205695E1,2.017968E2,1.3465511E3,5.004068E3,1.1882467E2,1.9202227E1,1.2833018E2,2.8930783E0,6.483048E1,1.5006442E3,1.02708534E2,3.4533762E3,4.6892324E3,7.686737E2,1.0248207E2,1.6281769E2,1.4013758E0,1.0838189E0,2.3616718E1,9.855103E0,1.1298466E0,5.7961593E0,7.1756035E1,1.0584308E0,1.0690531E1,1.1608346E0,6.4550476E1,6.3176885E0,1.5266528E0,2.6408916E0,6.0526314E1,3.935177E1,2.156093E1,3.7354604E3,3.5992648E2,1.1520323E1,2.94643E2,1.2188279E1,6.986867E1,1.202755E2,8.15213E1,5.4385815E2,8.02693E2,4.976857E3,2.7210772E1,2.9084307E1,8.974036E1,7.3382195E1,5.4947987E1,1.7759123E0,6.305457E1,1.9990372E1,1.4806538E3,7.874436E1,2.396417E1,3.23488E3,2.1849637E2,6.4342456E2,4.0458076E3,7.4402466E2,2.4649069E1,9.506756E1,7.4145164E0],"tree_param":{"num_deleted":"0","num_feature":"10000","num_nodes":"111","size_leaf_vector":"1"}},{"base_weights":[-1.72988E-4,9.239178E-1,-2.3217168E-1,-6.111682E-1,1.0246073E0,-1.3673954E0,-9.802352E-2,-1.2497622E0,3.192342E-1,-8.3512884E-1,1.0630343E0,1.3525206E-1,-1.4125638E0,6.170379E-2,-1.0427305E0,8.7082946E-1,-1.3114157E0,-6.817327E-1,8.71436E-1,1.068658E0,-1.1738032E0,1.090707E0,-1.2022473E0,-1.4249102E0,8.26956E-1,2.2565337E-1,-8.934541E-1,-1.2528552E0,-4.8701423E-1,1.1413522E-1,-9.516339E-3,-1.3335109E0,8.673946E-2,-9.70342E-1,1.0873574E0,-1.1239612E0,1.0644131E0,-4.6727765E-2,1.2366756E0,-1.3736529E0,4.281934E-1,1.114311E0,-1.0923276E0,-1.611803E0,6.790947E-1,-1.4310281E0,1.312788E-1,1.4012562E-1,-9.911045E-2,8.595757E-1,6.710677E-3,-9.428791E-1,1.8976799E0,-1.2902743E0,1.2265801E0,-1.2918531E0,2.3285111E-2,4.857367E-2,-1.356855E-1,1.01745546E-1,-1.1191528E-1,1.6887357E-2,1.23736374E-1,-1.21844366E-1,-3.2929953E-2,-1.541481E-1,1.1659384E-1,3.3534806E-2,1.2887314E-1,-1.4230245E-1,6.976992E-2,8.268338E-2,-8.659776E-2,-1.9227658E-1,1.1298994E-1,-1.4561366E-1,8.266441E-2,8.413898E-2,-1.7051777E-1,-9.287024E-2,1.1603613E-1,1.2662978E-1,-1.4360927E-1,9.1549456E-2,-1.5844366E-1,1.4749095E-1,-1.1996829E-2,2.0958924E-1,-9.852991E-2,2.1690185E-1,-4.279917E-2,-1.3121448E-1,2.2832814E-1,-1.0303815E-1,1.4303611E-1,2.314624E-1,-1.3812266E-1,1.5994604E-1,-1.2116584E-2],"categories":[],"categories_nodes":[],"categories_segments":[],"categories_sizes":[],"default_left":[0,0,0,0,0,0,1,0,0,0,1,0,1,1,1,1,1,1,0,0,0,1,1,1,0,0,1,1,0,0,0,0,0,0,0,1,0,0,0,1,0,0,1,0,0,0,0,0,0,1,0,0,1,1,0,0,0,0,0,0,0,0,0,0,0,0,0,0,0,0,0,0,0,0,0,0,0,0,0,0,0,0,0,0,0,0,0,0,0,0,0,0,0,0,0,0,0,0,0],"id":6,"left_children":[1,3,5,7,9,11,13,15,17,19,21,-1,23,25,27,29,31,33,35,37,39,41,43,45,47,49,51,53,55,-1,-1,57,-1,59,61,63,65,-1,67,69,71,73,75,77,79,81,-1,-1,-1,83,85,87,89,91,93,95,97,-1,-1,-1,-1,-1,-1,-1,-1,-1,-1,-1,-1,-1,-1,-1,-1,-1,-1,-1,-1,-1,-1,-1,-1,-1,-1,-1,-1,-1,-1,-1,-1,-1,-1,-1,-1,-1,-1,-1,-1,-1,-1],"loss_changes":[4.6969604E3,6.801865E2,2.666762E3,1.6156407E2,2.9576855E2,2.2926685E2,2.3634717E3,2.2198578E1,6.205767E1,5.547509E1,2.5476465E2,0E0,5.152588E1,2.0983472E3,2.6390015E2,1.45472E0,8.710266E0,2.1527088E1,2.8960754E1,3.9905052E0,2.3597946E1,2.0706885E2,3.9058815E1,3.221582E1,1.2473348E1,1.5872626E3,2.725968E2,1.540249E2,2.5596315E2,0E0,0E0,7.2724E0,0E0,1.1492046E1,6.3084793E-1,1.12672806E-1,1.9326859E1,0E0,1.3997269E-1,7.551796E0,5.2218246E0,1.893042E2,3.1389698E1,1.0771248E1,8.437858E0,2.6512451E1,0E0,0E0,0E0,4.0268164E2,1.5813539E3,2.5079602E2,2.2692207E1,1.2954126E2,1.294482E1,8.11387E1,8.724447E1,0E0,0E0,0E0,0E0,0E0,0E0,0E0,0E0,0E0,0E0,0E0,0E0,0E0,0E0,0E0,0E0,0E0,0E0,0E0,0E0,0E0,0E0,0E0,0E0,0E0,0E0,0E0,0E0,0E0,0E0,0E0,0E0,0E0,0E0,0E0,0E0,0E0,0E0,0E0,0E0,0E0,0E0],"parents":[2147483647,0,0,1,1,2,2,3,3,4,4,5,5,6,6,7,7,8,8,9,9,10,10,12,12,13,13,14,14,15,15,16,16,17,17,18,18,19,19,20,20,21,21,22,22,23,23,24,24,25,25,26,26,27,27,28,28,31,31,33,33,34,34,35,35,36,36,38,38,39,39,40,40,41,41,42,42,43,43,44,44,45,45,49,49,50,50,51,51,52,52,53,53,54,54,55,55,56,56],"right_children":[2,4,6,8,10,12,14,16,18,20,22,-1,24,26,28,30,32,34,36,38,40,42,44,46,48,50,52,54,56,-1,-1,58,-1,60,62,64,66,-1,68,70,72,74,76,78,80,82,-1,-1,-1,84,86,88,90,92,94,96,98,-1,-1,-1,-1,-1,-1,-1,-1,-1,-1,-1,-1,-1,-1,-1,-1,-1,-1,-1,-1,-1,-1,-1,-1,-1,-1,-1,-1,-1,-1,-1,-1,-1,-1,-1,-1,-1,-1,-1,-1,-1,-1],"split_conditions":[2.00001E0,7.880977E-2,6.1579585E-1,7.879441E-2,9.7155017E-1,1.9838125E-1,2.1987393E-2,1.4449441E-1,1.7049047E-1,1.8997806E-1,4.703056E-2,1.3525206E-1,1.0350113E-1,6.9416724E-2,1.6182773E-2,3.789011E-2,4.213899E-2,1.2156579E-2,8.398719E-2,1.0260776E-1,2.00001E0,2.3823936E-2,4.041454E-2,7.5939134E-2,1.1756877E-1,4.5952517E-1,9.648094E-2,3.8517885E-2,2.436287E-1,1.1413522E-1,-9.516339E-3,8.3327815E-2,8.673946E-2,1.3416629E-1,1.0077701E-1,1.7726345E-2,4.1578237E-2,-4.6727765E-2,1.2594606E-1,7.4257545E-2,1.1609215E-1,5.664727E-1,4.346875E-2,9.9539064E-2,1.24261916E-1,1.4913605E-1,1.312788E-1,1.4012562E-1,-9.911045E-2,1.5543643E-2,1.9451362E0,5.0295407E-1,9.316125E-2,1.6354378E-1,1.2882875E-1,1.6506729E-1,9.72242E-2,4.857367E-2,-1.356855E-1,1.01745546E-1,-1.1191528E-1,1.6887357E-2,1.23736374E-1,-1.21844366E-1,-3.2929953E-2,-1.541481E-1,1.1659384E-1,3.3534806E-2,1.2887314E-1,-1.4230245E-1,6.976992E-2,8.268338E-2,-8.659776E-2,-1.9227658E-1,1.1298994E-1,-1.4561366E-1,8.266441E-2,8.413898E-2,-1.7051777E-1,-9.287024E-2,1.1603613E-1,1.2662978E-1,-1.4360927E-1,9.1549456E-2,-1.5844366E-1,1.4749095E-1,-1.1996829E-2,2.0958924E-1,-9.852991E-2,2.1690185E-1,-4.279917E-2,-1.3121448E-1,2.2832814E-1,-1.0303815E-1,1.4303611E-1,2.314624E-1,-1.3812266E-1,1.5994604E-1,-1.2116584E-2],"split_indices":[2814,9300,9907,8030,5108,8121,8900,5783,2788,4870,795,0,1005,2101,9346,8714,7300,3426,7585,7972,9346,4795,9346,6374,3426,3426,4941,1934,4883,0,0,9822,0,2775,8005,4840,5694,0,661,7503,5107,2493,9346,4553,396,2297,0,0,0,1390,8165,5701,5914,8484,4795,9850,9869,0,0,0,0,0,0,0,0,0,0,0,0,0,0,0,0,0,0,0,0,0,0,0,0,0,0,0,0,0,0,0,0,0,0,0,0,0,0,0,0,0,0],"split_type":[0,0,0,0,0,0,0,0,0,0,0,0,0,0,0,0,0,0,0,0,0,0,0,0,0,0,0,0,0,0,0,0,0,0,0,0,0,0,0,0,0,0,0,0,0,0,0,0,0,0,0,0,0,0,0,0,0,0,0,0,0,0,0,0,0,0,0,0,0,0,0,0,0,0,0,0,0,0,0,0,0,0,0,0,0,0,0,0,0,0,0,0,0,0,0,0,0,0,0],"sum_hessian":[2.1906705E4,4.395538E3,1.7511166E4,2.7025348E2,4.125284E3,1.8496215E3,1.5661545E4,1.6005463E2,1.1019886E2,8.309387E1,4.0421904E3,2.9741201E1,1.8198802E3,1.3397314E4,2.2642302E3,4.151114E0,1.5590352E2,3.9095867E1,7.110299E1,1.2223973E1,7.0869896E1,3.9939192E3,4.8271275E1,1.810264E3,9.616247E0,1.1435256E4,1.9620588E3,1.6420804E3,6.2214984E2,3.101123E0,1.0499909E0,1.5472244E2,1.1810741E0,3.4000526E1,5.0953417E0,5.8446417E0,6.5258354E1,1.0297133E0,1.1194261E1,6.3136173E1,7.733725E0,3.9516814E3,4.2237812E1,3.975922E1,8.512054E0,1.8067039E3,3.5601692E0,7.4820337E0,2.1342132E0,2.9348433E3,8.500412E3,1.9285702E3,3.3488674E1,1.6181394E3,2.3940973E1,2.4081204E2,3.8133777E2,1.7092607E0,1.5301318E2,1.96152E0,3.2039005E1,1.0137793E0,4.0815625E0,4.7469597E0,1.0976818E0,1.915261E0,6.334309E1,1.0175637E0,1.0176697E1,6.197204E1,1.1641347E0,6.1885805E0,1.5451442E0,1.9554457E1,3.932127E3,3.5709084E1,6.528731E0,1.1641096E0,3.859511E1,1.7467786E0,6.765276E0,2.919133E0,1.8037848E3,2.8698076E3,6.503563E1,6.743308E2,7.8260815E3,2.5884966E1,1.9026852E3,3.005006E1,3.438615E0,1.6089254E3,9.214027E0,1.6467042E0,2.2294268E1,5.221249E0,2.3559079E2,3.1168652E1,3.5016913E2],"tree_param":{"num_deleted":"0","num_feature":"10000","num_nodes":"99","size_leaf_vector":"1"}},{"base_weights":[-2.0934429E-4,8.7279E-1,-2.1374975E-1,1.0517417E0,8.415445E-2,1.1432378E0,-3.1710657E-1,1.0813926E0,-1.3702962E0,-1.3282775E0,3.2271978E-1,-3.7380987E-1,1.2508423E0,-2.4992118E-2,-7.7114606E-1,1.1325234E0,-4.250913E-3,-1.418875E-1,-2.462421E-2,9.648777E-2,-1.3763245E0,8.2816344E-1,-2.3642913E-2,-6.6631883E-1,1.2942042E0,1.4099846E0,6.33861E-1,-1.0560778E0,1.23606935E-1,-1.3064118E-1,-9.7194314E-1,1.1617786E0,-2.0321149E-1,1.3499962E-1,-1.045907E0,-1.3186987E-1,-1.9251987E0,8.766622E-1,-2.4449869E-1,1.3671553E-1,-2.0353192E-1,-9.012113E-1,6.9103783E-1,1.732839E-1,-3.2955346E-1,-8.2266825E-1,1.455228E0,-1.310314E0,7.9434717E-1,9.472304E-1,-1.2434245E0,4.376645E-1,-4.0852904E-1,-3.1269678E-1,1.0716783E0,-9.916454E-1,1.7784873E0,-9.453898E-2,1.1774959E-1,7.6493934E-2,-6.87871E-2,-1.3796383E-1,1.0722778E-1,-5.4882277E-2,-2.0481808E-1,-6.0623206E-2,9.857174E-2,1.1887852E-1,-3.6694866E-2,1.229338E-1,-1.026263E-1,1.5670471E-1,-2.203822E-2,6.2546305E-2,-1.0521276E-1,1.1306675E-1,-1.2714595E-1,-1.3673636E-1,1.4710228E-1,-1.5480588E-1,4.3793585E-2,9.009489E-2,-1.3251244E-1,-1.0922643E-1,1.22419216E-1,-1.2951921E-1,1.4406307E-1,-1.3670012E-1,5.350241E-2,1.6645296E-2,-8.36163E-2,-4.4904094E-2,9.814728E-2,1.2182482E-1,-1.020185E-1,-1.0302607E-1,2.958923E-2,1.8824624E-1,-1.0123484E-2],"categories":[],"categories_nodes":[],"categories_segments":[],"categories_sizes":[],"default_left":[0,1,0,1,0,0,1,1,0,0,0,1,1,0,0,1,0,0,0,0,0,1,0,1,1,0,0,0,1,1,1,0,1,0,1,0,0,0,0,0,0,0,0,0,0,0,0,1,1,0,1,0,0,1,1,1,1,0,0,0,0,0,0,0,0,0,0,0,0,0,0,0,0,0,0,0,0,0,0,0,0,0,0,0,0,0,0,0,0,0,0,0,0,0,0,0,0,0,0],"id":7,"left_children":[1,3,5,7,9,11,13,15,17,19,21,23,25,27,29,31,33,-1,-1,-1,35,37,39,41,43,45,47,49,51,53,55,57,59,-1,61,-1,63,65,-1,-1,67,69,71,-1,73,75,77,79,81,83,85,87,89,91,93,95,97,-1,-1,-1,-1,-1,-1,-1,-1,-1,-1,-1,-1,-1,-1,-1,-1,-1,-1,-1,-1,-1,-1,-1,-1,-1,-1,-1,-1,-1,-1,-1,-1,-1,-1,-1,-1,-1,-1,-1,-1,-1,-1],"loss_changes":[3.9831316E3,5.9253345E2,2.4081265E3,2.472688E2,2.6248413E2,1.9884387E2,2.1158438E3,1.8771948E2,1.9348984E0,1.3731216E1,1.1663828E2,4.050875E1,1.10547485E2,1.4876514E3,8.031089E2,1.264375E2,2.1738187E2,0E0,0E0,0E0,9.6183777E-1,4.5146088E1,9.941437E1,2.2875479E1,9.4480095E0,9.225354E1,7.42208E1,4.6019983E2,1.4184484E3,3.2686957E2,2.59417E2,1.0578467E2,3.340391E1,0E0,6.305076E1,0E0,2.8785515E-1,4.3885223E1,0E0,0E0,8.04654E1,1.7229244E1,9.0178795E0,0E0,3.0670824E0,1.7693205E1,4.1417725E1,8.268251E0,5.0285797E1,6.07396E1,1.5732996E2,9.3849774E2,7.747154E2,2.2918924E2,6.1461838E1,2.3505078E2,6.8698807E0,0E0,0E0,0E0,0E0,0E0,0E0,0E0,0E0,0E0,0E0,0E0,0E0,0E0,0E0,0E0,0E0,0E0,0E0,0E0,0E0,0E0,0E0,0E0,0E0,0E0,0E0,0E0,0E0,0E0,0E0,0E0,0E0,0E0,0E0,0E0,0E0,0E0,0E0,0E0,0E0,0E0,0E0],"parents":[2147483647,0,0,1,1,2,2,3,3,4,4,5,5,6,6,7,7,8,8,9,9,10,10,11,11,12,12,13,13,14,14,15,15,16,16,20,20,21,21,22,22,23,23,24,24,25,25,26,26,27,27,28,28,29,29,30,30,31,31,32,32,34,34,36,36,37,37,40,40,41,41,42,42,44,44,45,45,46,46,47,47,48,48,49,49,50,50,51,51,52,52,53,53,54,54,55,55,56,56],"right_children":[2,4,6,8,10,12,14,16,18,20,22,24,26,28,30,32,34,-1,-1,-1,36,38,40,42,44,46,48,50,52,54,56,58,60,-1,62,-1,64,66,-1,-1,68,70,72,-1,74,76,78,80,82,84,86,88,90,92,94,96,98,-1,-1,-1,-1,-1,-1,-1,-1,-1,-1,-1,-1,-1,-1,-1,-1,-1,-1,-1,-1,-1,-1,-1,-1,-1,-1,-1,-1,-1,-1,-1,-1,-1,-1,-1,-1,-1,-1,-1,-1,-1,-1],"split_conditions":[2.00001E0,2.441208E-2,9.879837E-1,1.6051775E-2,1.3748278E-1,1.67435E-1,6.701822E-3,3.4122318E-2,1.3471481E0,9.669021E-2,5.424948E-1,4.4723023E-2,8.185829E-2,2.00001E0,3.958216E-1,3.0577054E-2,1.3687372E-1,-1.418875E-1,-2.462421E-2,9.648777E-2,7.879441E-2,2.7169564E-1,5.819175E-1,3.5782788E-2,3.502019E-2,1.7134278E-1,3.1891218E-1,3.4462395E-1,1.6901342E-2,6.605264E-2,5.110146E-2,1.6003194E-1,1.632395E-2,1.3499962E-1,4.981497E-2,-1.3186987E-1,1.5599649E-1,2.3239774E-1,-2.4449869E-1,1.3671553E-1,2.0842238E-1,2.4850103E-1,2.4251726E-1,1.732839E-1,5.08837E-2,1.4679886E-1,6.254974E-2,9.800088E-2,5.647192E-2,1.4778337E-1,2.3185629E-1,6.071636E-1,3.7004238E-1,2.4608286E-2,3.5300612E-2,4.6242062E-2,4.561886E-2,-9.453898E-2,1.1774959E-1,7.6493934E-2,-6.87871E-2,-1.3796383E-1,1.0722778E-1,-5.4882277E-2,-2.0481808E-1,-6.0623206E-2,9.857174E-2,1.1887852E-1,-3.6694866E-2,1.229338E-1,-1.026263E-1,1.5670471E-1,-2.203822E-2,6.2546305E-2,-1.0521276E-1,1.1306675E-1,-1.2714595E-1,-1.3673636E-1,1.4710228E-1,-1.5480588E-1,4.3793585E-2,9.009489E-2,-1.3251244E-1,-1.0922643E-1,1.22419216E-1,-1.2951921E-1,1.4406307E-1,-1.3670012E-1,5.350241E-2,1.6645296E-2,-8.36163E-2,-4.4904094E-2,9.814728E-2,1.2182482E-1,-1.020185E-1,-1.0302607E-1,2.958923E-2,1.8824624E-1,-1.0123484E-2],"split_indices":[2814,2101,5459,4896,6649,8939,2101,8900,7232,7277,6812,7277,5914,4883,3426,6395,8951,0,0,0,8030,5667,5884,1197,2749,9907,3728,1511,5914,1647,8106,9907,5914,0,8030,0,2113,9907,0,0,8181,5073,1647,0,1801,2384,3728,1647,9414,1564,3489,3364,9346,9822,6395,4870,9708,0,0,0,0,0,0,0,0,0,0,0,0,0,0,0,0,0,0,0,0,0,0,0,0,0,0,0,0,0,0,0,0,0,0,0,0,0,0,0,0,0,0],"split_type":[0,0,0,0,0,0,0,0,0,0,0,0,0,0,0,0,0,0,0,0,0,0,0,0,0,0,0,0,0,0,0,0,0,0,0,0,0,0,0,0,0,0,0,0,0,0,0,0,0,0,0,0,0,0,0,0,0,0,0,0,0,0,0,0,0,0,0,0,0,0,0,0,0,0,0,0,0,0,0,0,0,0,0,0,0,0,0,0,0,0,0,0,0,0,0,0,0,0,0],"sum_hessian":[2.1364365E4,4.1981865E3,1.716618E4,3.421475E3,7.767112E2,1.2142352E3,1.5951944E4,3.3806423E3,4.083279E1,1.1157297E2,6.6513824E2,8.025775E1,1.1339775E3,9.707503E3,6.2444414E3,3.2285437E3,1.520985E2,3.8889786E1,1.9430037E0,1.8981428E0,1.0967483E2,2.6989383E2,3.9524442E2,6.879427E1,1.146348E1,9.004363E2,2.3354117E2,1.222037E3,8.485466E3,1.490781E3,4.75366E3,3.1594753E3,6.906839E1,6.599848E1,8.6100006E1,1.0233345E2,7.3413754E0,2.6667462E2,3.2191885E0,4.4510998E1,3.507334E2,5.8932053E1,9.86222E0,8.972507E0,2.4909718E0,1.7543085E1,8.8289325E2,1.7261831E1,2.1627934E2,1.0416282E2,1.1178741E3,5.336269E3,3.1491973E3,1.2953749E3,1.9540617E2,4.7204854E3,3.3175022E1,2.2953932E1,3.1365215E3,2.2848385E1,4.622E1,7.468211E1,1.1417896E1,1.0502244E0,6.2911506E0,1.795603E1,2.487186E2,3.6182503E1,3.145509E2,2.777648E0,5.6154404E1,4.6620016E0,5.2002187E0,1.1308019E0,1.3601699E0,2.9937248E0,1.4549361E1,4.436909E0,8.784563E2,1.5296207E1,1.9656242E0,2.064696E2,9.809747E0,1.2102024E1,9.20608E1,1.0972292E3,2.0644852E1,2.7248187E2,5.063787E3,1.3434504E3,1.805747E3,1.1725017E3,1.228731E2,1.8300148E2,1.2404687E1,4.583227E3,1.3725815E2,3.1434778E1,1.7402437E0],"tree_param":{"num_deleted":"0","num_feature":"10000","num_nodes":"99","size_leaf_vector":"1"}},{"base_weights":[-1.8597396E-4,8.254347E-1,-1.9698025E-1,1.0001425E0,7.7542074E-2,-1.2784339E0,-7.675044E-2,-4.986627E-3,1.0693326E0,-1.2794098E0,2.9638818E-1,1.2848204E-1,-1.3215013E0,3.1816963E-2,-1.287493E0,-1.1584275E0,3.247531E-1,1.1012563E0,-4.7257128E-1,9.247734E-2,-1.3271068E-1,-1.5546851E0,3.8051975E-1,-1.3334116E0,7.733093E-1,1.6897622E-1,-9.236166E-1,1.3242506E0,-1.3147988E0,4.4274777E-1,-1.2659966E0,4.645566E-1,-1.422732E0,1.1143016E0,-2.337039E-1,-9.0794295E-1,2.6431677E-1,-1.2780665E-1,-2.5164315E-1,8.3199507E-1,7.099335E-2,-1.3394253E0,1.2136068E-1,1.3025871E-1,-9.139299E-2,-1.3068085E0,2.3955251E-1,-1.1566623E0,-3.495002E-1,1.7429914E-1,-3.089687E-1,6.50823E-1,-1.3399367E0,8.3393395E-2,-1.9226877E-2,4.9916003E-2,-1.3243692E-1,-1.3328457E-1,5.766825E-2,-1.7307632E-1,7.6100245E-2,-1.7686489E-1,1.1262894E-1,2.860414E-2,-1.1374145E-1,5.6889426E-2,-1.03271E-1,8.812237E-2,-2.1185286E-1,2.1378541E-2,-1.6893332E-1,1.6421664E-1,-1.3442269E-1,-1.4380275E-1,1.3499841E-1,7.508963E-2,4.6688546E-3,-1.18753746E-1,1.7420378E-1,-1.16824046E-1,1.0472062E-2,2.4195023E-2,-8.2148135E-2,1.2390448E-1,-7.196076E-2,1.2377296E-1,-1.356857E-1],"categories":[],"categories_nodes":[],"categories_segments":[],"categories_sizes":[],"default_left":[0,1,0,0,0,0,1,0,1,0,0,0,1,1,0,0,1,1,0,0,0,0,0,1,0,0,1,0,0,0,0,0,1,0,0,0,1,0,0,1,1,0,0,0,0,1,0,1,0,0,0,0,0,0,0,0,0,0,0,0,0,0,0,0,0,0,0,0,0,0,0,0,0,0,0,0,0,0,0,0,0,0,0,0,0,0,0],"id":8,"left_children":[1,3,5,7,9,11,13,15,17,19,21,-1,23,25,27,29,31,33,35,-1,-1,37,39,41,43,45,47,49,51,53,55,57,59,61,-1,63,65,-1,-1,67,69,71,-1,-1,-1,73,75,77,79,-1,81,83,85,-1,-1,-1,-1,-1,-1,-1,-1,-1,-1,-1,-1,-1,-1,-1,-1,-1,-1,-1,-1,-1,-1,-1,-1,-1,-1,-1,-1,-1,-1,-1,-1,-1,-1],"loss_changes":[3.3836008E3,5.236714E2,2.1864521E3,2.2597534E2,2.261112E2,1.8742871E2,1.9895186E3,8.034565E1,1.5015967E2,1.2345627E1,1.0265611E2,0E0,4.2327393E1,1.820481E3,9.056616E1,8.649452E0,4.0799324E1,1.3620752E2,2.0247444E1,0E0,0E0,4.416092E0,8.76565E1,2.6840332E1,1.011205E1,1.2655663E3,2.3292517E2,9.692703E0,6.180298E1,1.078803E0,5.2221375E0,3.157933E1,9.669273E0,1.0456836E2,0E0,1.1127892E1,1.0043308E1,0E0,0E0,3.893628E1,9.423916E1,2.5725098E1,0E0,0E0,0E0,1.9528027E2,1.1433792E3,1.1304468E2,1.8790538E2,0E0,1.2098511E0,1.3986326E1,5.479712E1,0E0,0E0,0E0,0E0,0E0,0E0,0E0,0E0,0E0,0E0,0E0,0E0,0E0,0E0,0E0,0E0,0E0,0E0,0E0,0E0,0E0,0E0,0E0,0E0,0E0,0E0,0E0,0E0,0E0,0E0,0E0,0E0,0E0,0E0],"parents":[2147483647,0,0,1,1,2,2,3,3,4,4,5,5,6,6,7,7,8,8,9,9,10,10,12,12,13,13,14,14,15,15,16,16,17,17,18,18,21,21,22,22,23,23,24,24,25,25,26,26,27,27,28,28,29,29,30,30,31,31,32,32,33,33,35,35,36,36,39,39,40,40,41,41,45,45,46,46,47,47,48,48,50,50,51,51,52,52],"right_children":[2,4,6,8,10,12,14,16,18,20,22,-1,24,26,28,30,32,34,36,-1,-1,38,40,42,44,46,48,50,52,54,56,58,60,62,-1,64,66,-1,-1,68,70,72,-1,-1,-1,74,76,78,80,-1,82,84,86,-1,-1,-1,-1,-1,-1,-1,-1,-1,-1,-1,-1,-1,-1,-1,-1,-1,-1,-1,-1,-1,-1,-1,-1,-1,-1,-1,-1,-1,-1,-1,-1,-1,-1],"split_conditions":[2.00001E0,2.441208E-2,6.1579585E-1,9.136008E-2,1.3748278E-1,1.9838125E-1,1.1330002E-2,1.3471481E0,1.7346099E-2,9.669021E-2,5.2071724E-2,1.2848204E-1,1.0350113E-1,2.65043E-2,4.7690597E-1,1.218839E-1,7.0482425E-2,1.1296526E-1,2.2018349E-1,9.247734E-2,-1.3271068E-1,1.3351835E-1,5.424948E-1,7.5939134E-2,1.1756877E-1,2.00001E0,1.6736671E-2,2.2013474E-1,3.3994675E-1,4.4744443E-2,1.518035E-1,1.870998E-1,5.879206E-2,5.664727E-1,-2.337039E-1,1.9520842E-1,2.7543388E-2,-1.2780665E-1,-2.5164315E-1,2.7169564E-1,4.047948E-2,1.1512548E-1,1.2136068E-1,1.3025871E-1,-9.139299E-2,1.6656174E-1,2.00001E0,8.666662E-2,2.436287E-1,1.7429914E-1,9.95497E-2,9.3857065E-2,1.9451362E0,8.3393395E-2,-1.9226877E-2,4.9916003E-2,-1.3243692E-1,-1.3328457E-1,5.766825E-2,-1.7307632E-1,7.6100245E-2,-1.7686489E-1,1.1262894E-1,2.860414E-2,-1.1374145E-1,5.6889426E-2,-1.03271E-1,8.812237E-2,-2.1185286E-1,2.1378541E-2,-1.6893332E-1,1.6421664E-1,-1.3442269E-1,-1.4380275E-1,1.3499841E-1,7.508963E-2,4.6688546E-3,-1.18753746E-1,1.7420378E-1,-1.16824046E-1,1.0472062E-2,2.4195023E-2,-8.2148135E-2,1.2390448E-1,-7.196076E-2,1.2377296E-1,-1.356857E-1],"split_indices":[2814,2101,9907,2749,6649,8121,3381,7232,6395,7277,7585,0,1005,8900,1586,3720,9414,1061,5914,0,0,6753,6812,6374,3426,3728,9346,7353,3714,7232,5783,9907,8665,2493,0,3426,8900,0,0,5667,8900,4068,0,0,0,8714,3426,1511,4883,0,9346,5914,8165,0,0,0,0,0,0,0,0,0,0,0,0,0,0,0,0,0,0,0,0,0,0,0,0,0,0,0,0,0,0,0,0,0,0],"split_type":[0,0,0,0,0,0,0,0,0,0,0,0,0,0,0,0,0,0,0,0,0,0,0,0,0,0,0,0,0,0,0,0,0,0,0,0,0,0,0,0,0,0,0,0,0,0,0,0,0,0,0,0,0,0,0,0,0,0,0,0,0,0,0,0,0,0,0,0,0,0,0,0,0,0,0,0,0,0,0,0,0,0,0,0,0,0,0],"sum_hessian":[2.082305E4,4.007403E3,1.6815648E4,3.2482695E3,7.591335E2,1.681461E3,1.51341875E4,2.092604E2,3.0390093E3,1.0475509E2,6.543784E2,2.7308317E1,1.6541527E3,1.3889673E4,1.2445146E3,4.5963917E1,1.632965E2,2.9776458E3,6.1363472E1,1.8293288E0,1.0292576E2,2.7688713E1,6.266897E2,1.6451624E3,8.990365E0,1.2146744E4,1.7429281E3,1.2385341E1,1.2321293E3,2.6973739E0,4.326654E1,1.5187985E2,1.141664E1,2.9670642E3,1.0581533E1,3.8427452E1,2.2936018E1,2.3312458E1,4.376255E0,2.5421039E2,3.724793E2,1.6417601E3,3.4022245E0,7.0171123E0,1.9732527E0,5.5358093E2,1.1593163E4,1.2389841E3,5.03944E2,9.804384E0,2.5809567E0,1.5244165E1,1.2168851E3,1.4753027E0,1.2220712E0,1.1432692E0,4.2123272E1,8.278981E0,1.4360088E2,1.0187106E1,1.2295337E0,1.1679606E1,2.9553845E3,6.155046E0,3.2272408E1,1.9028896E1,3.9071214E0,2.507284E2,3.4819963E0,3.453446E2,2.7134699E1,2.0913386E0,1.6396688E3,5.279635E2,2.561738E1,3.1742698E3,8.418894E3,1.2265105E3,1.2473712E1,1.7925752E2,3.246865E2,1.4982961E0,1.0826606E0,1.0733123E1,4.511043E0,7.4652405E0,1.2094199E3],"tree_param":{"num_deleted":"0","num_feature":"10000","num_nodes":"87","size_leaf_vector":"1"}},{"base_weights":[-4.4432774E-4,7.81763E-1,-1.8125457E-1,9.529408E-1,7.041076E-2,-1.2303245E0,-7.043146E-2,3.71688E-3,1.021715E0,-1.2386867E0,2.7091324E-1,1.2432643E-1,-1.2717785E0,2.8650071E-2,-1.2164668E0,-1.0807385E0,3.0286518E-1,1.0701094E0,-1.1692262E-2,8.880632E-2,-1.2864408E0,8.824284E-1,2.9206453E-2,-1.2833726E0,7.3260814E-1,1.5290356E-1,-8.711282E-1,1.2211566E0,-1.2427073E0,4.8262492E-1,-1.1982353E0,7.1713907E-1,-2.3443611E-1,-5.5804867E-1,1.0912311E0,1.2680683E-1,-1.0298606E0,-1.2932348E0,-4.0791538E-2,9.3147236E-1,-1.494575E-1,-2.3025188E-1,5.381061E-1,-1.2903333E0,1.0600011E0,1.24383084E-1,-8.791788E-2,3.7286645E-1,-2.984324E-1,-1.1020478E0,-3.2193524E-1,1.6144438E-1,-2.9672614E-1,-1.2608242E0,1.2338623E0,8.5482575E-2,-1.8188333E-2,4.7727935E-2,-1.2587762E-1,8.2054E-2,-7.792805E-2,8.263765E-3,-1.3108158E-1,7.579485E-2,-1.7288196E-1,-2.4191976E-1,1.10019796E-1,-1.3673492E-1,1.097269E-1,-1.2401947E-1,-1.7398493E-1,-1.1770004E-1,9.759302E-2,-4.0323246E-2,1.1670195E-1,-5.2096356E-2,7.5668395E-2,-1.2962951E-1,1.154743E-1,-3.2334253E-2,1.735511E-1,-1.0520549E-1,4.65126E-2,-4.240761E-2,1.1783544E-1,-1.1269563E-1,2.643911E-1,-1.1915224E-1,6.4941025E-3,-7.97248E-2,2.3807403E-2,1.188424E-1,-1.2767279E-1,1.3952857E-1,8.95345E-3],"categories":[],"categories_nodes":[],"categories_segments":[],"categories_sizes":[],"default_left":[0,1,0,0,0,0,1,0,1,0,0,0,1,1,0,0,0,0,0,0,1,1,1,1,0,1,1,0,1,0,0,1,1,0,0,0,1,0,0,0,0,1,0,1,0,0,0,0,1,1,0,0,0,0,1,0,0,0,0,0,0,0,0,0,0,0,0,0,0,0,0,0,0,0,0,0,0,0,0,0,0,0,0,0,0,0,0,0,0,0,0,0,0,0,0],"id":9,"left_children":[1,3,5,7,9,11,13,15,17,19,21,-1,23,25,27,29,31,33,35,-1,37,39,41,43,45,47,49,51,53,55,57,59,61,63,65,-1,67,69,-1,71,-1,73,75,77,79,-1,-1,81,83,85,87,-1,89,91,93,-1,-1,-1,-1,-1,-1,-1,-1,-1,-1,-1,-1,-1,-1,-1,-1,-1,-1,-1,-1,-1,-1,-1,-1,-1,-1,-1,-1,-1,-1,-1,-1,-1,-1,-1,-1,-1,-1,-1,-1],"loss_changes":[2.8769033E3,4.6498486E2,1.9208043E3,2.0095532E2,1.95056E2,1.6344751E2,1.6970122E3,6.811969E1,1.4356128E2,1.1167709E1,9.518358E1,0E0,3.7031982E1,1.5381039E3,7.758789E1,8.9178505E0,3.6799587E1,9.4903564E1,1.6990755E2,0E0,5.114746E-2,2.266101E1,6.121813E1,2.6560059E1,8.977728E0,1.2001798E3,2.1134668E2,8.341137E0,5.4368652E1,1.116719E0,4.9132385E0,1.5055641E1,2.4817795E1,5.6432827E1,8.787598E1,0E0,5.3628418E1,1.1036682E-1,0E0,1.7962585E1,0E0,7.471066E1,3.663248E1,2.3950928E1,5.3484316E0,0E0,0E0,1.0689696E3,7.355371E2,1.1259277E2,1.6678928E2,0E0,1.141386E0,4.7054077E1,1.5474739E0,0E0,0E0,0E0,0E0,0E0,0E0,0E0,0E0,0E0,0E0,0E0,0E0,0E0,0E0,0E0,0E0,0E0,0E0,0E0,0E0,0E0,0E0,0E0,0E0,0E0,0E0,0E0,0E0,0E0,0E0,0E0,0E0,0E0,0E0,0E0,0E0,0E0,0E0,0E0,0E0],"parents":[2147483647,0,0,1,1,2,2,3,3,4,4,5,5,6,6,7,7,8,8,9,9,10,10,12,12,13,13,14,14,15,15,16,16,17,17,18,18,20,20,21,21,22,22,23,23,24,24,25,25,26,26,27,27,28,28,29,29,30,30,31,31,32,32,33,33,34,34,36,36,37,37,39,39,41,41,42,42,43,43,44,44,47,47,48,48,49,49,50,50,52,52,53,53,54,54],"right_children":[2,4,6,8,10,12,14,16,18,20,22,-1,24,26,28,30,32,34,36,-1,38,40,42,44,46,48,50,52,54,56,58,60,62,64,66,-1,68,70,-1,72,-1,74,76,78,80,-1,-1,82,84,86,88,-1,90,92,94,-1,-1,-1,-1,-1,-1,-1,-1,-1,-1,-1,-1,-1,-1,-1,-1,-1,-1,-1,-1,-1,-1,-1,-1,-1,-1,-1,-1,-1,-1,-1,-1,-1,-1,-1,-1,-1,-1,-1,-1],"split_conditions":[2.00001E0,2.441208E-2,6.1579585E-1,9.351096E-2,1.3748278E-1,1.9838125E-1,1.1330002E-2,1.3471481E0,3.6376588E-2,9.669021E-2,2.071336E-1,1.2432643E-1,1.0350113E-1,2.65043E-2,4.7690597E-1,1.218839E-1,5.436843E-1,5.927844E-1,7.624736E-2,8.880632E-2,1.7875262E-2,6.0751468E-2,2.548654E-2,4.5673843E-2,1.1756877E-1,5.818371E-2,1.6736671E-2,2.2013474E-1,4.085784E-2,4.4744443E-2,2.4812429E-1,3.764129E-2,1.8273938E-2,3.7004238E-1,1.18316025E-1,1.2680683E-1,4.981497E-2,7.879441E-2,-4.0791538E-2,9.451729E-2,-1.494575E-1,3.6432087E-2,6.0623014E-1,7.5939134E-2,7.7610284E-2,1.24383084E-1,-8.791788E-2,1.1375548E0,2.5072895E-2,1.0883367E-1,2.7083382E-1,1.6144438E-1,2.500187E-1,1.9451362E0,9.5584616E-2,8.5482575E-2,-1.8188333E-2,4.7727935E-2,-1.2587762E-1,8.2054E-2,-7.792805E-2,8.263765E-3,-1.3108158E-1,7.579485E-2,-1.7288196E-1,-2.4191976E-1,1.10019796E-1,-1.3673492E-1,1.097269E-1,-1.2401947E-1,-1.7398493E-1,-1.1770004E-1,9.759302E-2,-4.0323246E-2,1.1670195E-1,-5.2096356E-2,7.5668395E-2,-1.2962951E-1,1.154743E-1,-3.2334253E-2,1.735511E-1,-1.0520549E-1,4.65126E-2,-4.240761E-2,1.1783544E-1,-1.1269563E-1,2.643911E-1,-1.1915224E-1,6.4941025E-3,-7.97248E-2,2.3807403E-2,1.188424E-1,-1.2767279E-1,1.3952857E-1,8.95345E-3],"split_indices":[2814,2101,9907,2749,6649,8121,3381,7232,8900,7277,3426,0,1005,8900,1586,3720,396,3728,858,0,4052,2395,6812,3260,3426,5914,9346,7353,5381,7232,1455,8891,8714,9346,7402,0,8030,8030,0,3051,0,406,8714,6374,8991,0,0,1564,5799,4917,5108,0,3364,8165,3426,0,0,0,0,0,0,0,0,0,0,0,0,0,0,0,0,0,0,0,0,0,0,0,0,0,0,0,0,0,0,0,0,0,0,0,0,0,0,0,0],"split_type":[0,0,0,0,0,0,0,0,0,0,0,0,0,0,0,0,0,0,0,0,0,0,0,0,0,0,0,0,0,0,0,0,0,0,0,0,0,0,0,0,0,0,0,0,0,0,0,0,0,0,0,0,0,0,0,0,0,0,0,0,0,0,0,0,0,0,0,0,0,0,0,0,0,0,0,0,0,0,0,0,0,0,0,0,0,0,0,0,0,0,0,0,0,0,0],"sum_hessian":[2.0339373E4,3.8181714E3,1.6521203E4,3.0773152E3,7.4085626E2,1.5775691E3,1.4943634E4,2.0796936E2,2.8693457E3,9.771155E1,6.431447E2,2.552428E1,1.5520449E3,1.3755375E4,1.1882585E3,4.4400063E1,1.6356929E2,2.740952E3,1.283938E2,1.7594013E0,9.595215E1,1.8144368E2,4.6170102E2,1.5434764E3,8.568389E0,1.2087061E4,1.6683138E3,1.2170123E1,1.1760884E3,2.8864615E0,4.15136E1,9.216944E1,7.139986E1,3.477683E1,2.706175E3,5.678009E1,7.1613716E1,9.4747375E1,1.2047726E0,1.7837152E2,3.0721526E0,3.0615695E2,1.5554408E2,1.5393535E3,4.1230187E0,6.6784315E0,1.8899577E0,8.126639E3,3.9604216E3,1.1737709E3,4.9454303E2,9.615189E0,2.5549343E0,1.1680348E3,8.05364E0,1.6665813E0,1.2198801E0,1.2076406E0,4.030596E1,8.663474E1,5.534697E0,5.5866306E1,1.5533548E1,1.6538946E1,1.8237883E1,6.210012E0,2.699965E3,6.211568E1,9.4980345E0,8.8065544E1,6.681833E0,3.1573033E0,1.7521422E2,2.7306342E2,3.309352E1,2.637356E1,1.2917052E2,1.5360779E3,3.2755783E0,1.5238127E0,2.5992062E0,4.93547E2,7.6330923E3,3.650549E3,3.0987256E2,1.166712E3,7.058803E0,1.5163379E2,3.4290924E2,1.0662686E0,1.4886657E0,7.059876E0,1.160975E3,6.865815E0,1.1878256E0],"tree_param":{"num_deleted":"0","num_feature":"10000","num_nodes":"95","size_leaf_vector":"1"}},{"base_weights":[-6.386803E-4,7.4111056E-1,-1.6709687E-1,-2.9170996E-1,8.5122854E-1,1.0524164E0,-2.6005378E-1,6.9039047E-1,-5.777282E-1,-4.9398637E-1,9.180782E-1,-3.0370414E-1,1.1495032E0,1.3266772E0,-3.362846E-1,7.648945E-1,-1.18914716E-1,9.567572E-1,-7.727035E-1,8.990166E-1,-9.1336316E-1,-9.5312726E-1,9.499124E-1,-5.723752E-1,1.1931086E0,1.294538E0,5.9811646E-1,1.4376807E0,5.3746533E-2,-4.066677E-1,1.2754186E0,-6.425865E-1,8.6399746E-1,1.086244E0,-1.0908933E-1,-8.899089E-1,1.1791172E0,1.1318797E0,-1.63039E-1,-1.057224E0,9.1472983E-1,6.676984E-1,-1.5897236E0,9.72102E-1,-1.1328391E0,1.4007665E-1,-7.112074E-1,1.587709E-1,-3.1051844E-1,1.3222414E0,-1.1623917E0,-1.104977E0,7.280247E-1,-1.1657371E-1,1.4593389E0,7.158534E-1,-1.0290588E0,-4.545053E-1,1.4209595E0,1.4215093E0,-1.225363E-1,5.292645E-2,-1.056638E-1,-6.2419634E-2,9.5958516E-2,-5.449913E-2,1.1680942E-1,-9.83381E-2,1.1990606E-1,1.283849E-1,-7.1030045E-3,1.2052691E-1,-4.6258908E-2,1.0739062E-1,-1.155582E-1,-4.4913035E-2,1.1680851E-1,8.924243E-2,-1.1414343E-1,6.6665704E-3,-1.7270158E-1,1.7514339E-2,1.0277339E-1,-1.657543E-1,5.8960695E-2,9.281131E-2,-8.958114E-2,5.439177E-2,-9.717738E-2,-7.8583024E-2,1.3400957E-1,-5.257783E-3,-1.2894617E-1,-1.3630483E-1,5.3669732E-2,8.1988744E-2,-1.1885003E-1,-1.3174105E-1,1.4755692E-1,1.3996458E-1,-1.5009087E-1,-1.5118991E-1,1.2569715E-1,1.3768987E-1,-5.0080247E-2,1.5457764E-1,-4.390424E-2,-1.0767814E-1,1.4903867E-1,-1.16818726E-1,2.799066E-2],"categories":[],"categories_nodes":[],"categories_segments":[],"categories_sizes":[],"default_left":[0,0,0,0,0,0,0,1,0,0,0,1,1,1,1,0,0,1,1,1,1,0,1,0,1,1,0,0,1,1,1,0,0,0,0,1,1,1,0,0,0,1,0,0,1,0,0,0,0,0,0,1,1,0,0,1,1,0,1,0,0,0,0,0,0,0,0,0,0,0,0,0,0,0,0,0,0,0,0,0,0,0,0,0,0,0,0,0,0,0,0,0,0,0,0,0,0,0,0,0,0,0,0,0,0,0,0,0,0,0,0],"id":10,"left_children":[1,3,5,7,9,11,13,15,17,19,21,23,25,27,29,31,-1,33,35,37,39,41,43,45,47,49,51,53,55,57,59,61,63,65,-1,67,69,71,-1,73,75,77,79,81,83,-1,85,-1,87,89,91,93,95,-1,97,99,101,103,105,107,109,-1,-1,-1,-1,-1,-1,-1,-1,-1,-1,-1,-1,-1,-1,-1,-1,-1,-1,-1,-1,-1,-1,-1,-1,-1,-1,-1,-1,-1,-1,-1,-1,-1,-1,-1,-1,-1,-1,-1,-1,-1,-1,-1,-1,-1,-1,-1,-1,-1,-1],"loss_changes":[2.4505908E3,4.1397327E2,1.8378636E3,9.905756E1,2.960879E2,1.5153308E2,1.8223888E3,1.206641E1,8.228338E1,9.212221E1,1.8748584E2,3.185197E1,8.493579E1,9.75155E1,1.6309381E3,1.1329552E1,0E0,9.450487E0,5.649681E1,2.3442938E1,3.2688515E1,5.5639107E1,1.434585E2,1.918199E1,7.6836357E0,5.923645E1,5.0598763E1,3.751953E1,4.1198376E1,1.2047485E3,1.2304718E2,3.302869E0,1.0924976E1,4.618164E0,0E0,4.5936417E1,1.9452019E0,4.5556602E0,0E0,2.477687E1,3.7504678E0,7.3693714E0,8.819054E0,1.3497388E2,3.07416E1,0E0,1.9801836E1,0E0,2.4245408E0,3.2621338E1,1.3401918E0,7.65761E0,3.789637E1,0E0,3.0356323E1,5.6081417E1,2.5990982E1,1.1387043E3,8.229047E1,9.5351685E1,2.4669285E1,0E0,0E0,0E0,0E0,0E0,0E0,0E0,0E0,0E0,0E0,0E0,0E0,0E0,0E0,0E0,0E0,0E0,0E0,0E0,0E0,0E0,0E0,0E0,0E0,0E0,0E0,0E0,0E0,0E0,0E0,0E0,0E0,0E0,0E0,0E0,0E0,0E0,0E0,0E0,0E0,0E0,0E0,0E0,0E0,0E0,0E0,0E0,0E0,0E0,0E0],"parents":[2147483647,0,0,1,1,2,2,3,3,4,4,5,5,6,6,7,7,8,8,9,9,10,10,11,11,12,12,13,13,14,14,15,15,17,17,18,18,19,19,20,20,21,21,22,22,23,23,24,24,25,25,26,26,27,27,28,28,29,29,30,30,31,31,32,32,33,33,35,35,36,36,37,37,39,39,40,40,41,41,42,42,43,43,44,44,46,46,48,48,49,49,50,50,51,51,52,52,54,54,55,55,56,56,57,57,58,58,59,59,60,60],"right_children":[2,4,6,8,10,12,14,16,18,20,22,24,26,28,30,32,-1,34,36,38,40,42,44,46,48,50,52,54,56,58,60,62,64,66,-1,68,70,72,-1,74,76,78,80,82,84,-1,86,-1,88,90,92,94,96,-1,98,100,102,104,106,108,110,-1,-1,-1,-1,-1,-1,-1,-1,-1,-1,-1,-1,-1,-1,-1,-1,-1,-1,-1,-1,-1,-1,-1,-1,-1,-1,-1,-1,-1,-1,-1,-1,-1,-1,-1,-1,-1,-1,-1,-1,-1,-1,-1,-1,-1,-1,-1,-1,-1,-1],"split_conditions":[2.00001E0,7.401792E-2,9.879837E-1,2.5021833E-1,3.1885675E-1,1.67435E-1,2.00001E0,3.8706236E-2,2.4434586E-1,1.19068615E-1,5.927844E-1,4.4723023E-2,8.2534164E-2,2.9148621E-2,1.7862396E-2,8.913455E-2,-1.18914716E-1,5.0281506E-2,6.479669E-2,5.0629072E-2,3.740946E-2,1.0534432E0,5.016309E-2,1.0827381E-1,3.502019E-2,4.4400923E-2,3.1891218E-1,1.0853269E-1,3.0428467E-2,2.637346E-2,1.2498148E-2,1.0927213E-1,8.4882215E-2,7.8766E-2,-1.0908933E-1,6.1807584E-2,2.9371167E-2,1.5642238E-1,-1.63039E-1,1.7949782E-1,5.5864386E-2,6.936901E-2,3.6375558E-1,2.523215E-1,4.041454E-2,1.4007665E-1,1.0735588E-1,1.587709E-1,5.08837E-2,1.7570204E-1,9.893695E-2,9.800088E-2,5.647192E-2,-1.1657371E-1,6.4967245E-1,4.2267025E-2,3.9164416E-2,1.389313E0,2.3680134E-2,5.5051565E-1,1.701404E-1,5.292645E-2,-1.056638E-1,-6.2419634E-2,9.5958516E-2,-5.449913E-2,1.1680942E-1,-9.83381E-2,1.1990606E-1,1.283849E-1,-7.1030045E-3,1.2052691E-1,-4.6258908E-2,1.0739062E-1,-1.155582E-1,-4.4913035E-2,1.1680851E-1,8.924243E-2,-1.1414343E-1,6.6665704E-3,-1.7270158E-1,1.7514339E-2,1.0277339E-1,-1.657543E-1,5.8960695E-2,9.281131E-2,-8.958114E-2,5.439177E-2,-9.717738E-2,-7.8583024E-2,1.3400957E-1,-5.257783E-3,-1.2894617E-1,-1.3630483E-1,5.3669732E-2,8.1988744E-2,-1.1885003E-1,-1.3174105E-1,1.4755692E-1,1.3996458E-1,-1.5009087E-1,-1.5118991E-1,1.2569715E-1,1.3768987E-1,-5.0080247E-2,1.5457764E-1,-4.390424E-2,-1.0767814E-1,1.4903867E-1,-1.16818726E-1,2.799066E-2],"split_indices":[2814,2749,5459,3426,2788,8939,2837,3266,9822,2749,3728,7277,5914,5085,7126,1379,0,7232,7499,7985,7843,9363,795,7784,2749,9907,3728,1826,9300,5312,9414,9932,8891,3951,0,7300,8991,2761,0,8302,7232,5914,9439,8714,9346,0,6958,0,1801,1919,8900,1647,9414,0,3665,4299,3655,8168,5085,3744,5085,0,0,0,0,0,0,0,0,0,0,0,0,0,0,0,0,0,0,0,0,0,0,0,0,0,0,0,0,0,0,0,0,0,0,0,0,0,0,0,0,0,0,0,0,0,0,0,0,0,0],"split_type":[0,0,0,0,0,0,0,0,0,0,0,0,0,0,0,0,0,0,0,0,0,0,0,0,0,0,0,0,0,0,0,0,0,0,0,0,0,0,0,0,0,0,0,0,0,0,0,0,0,0,0,0,0,0,0,0,0,0,0,0,0,0,0,0,0,0,0,0,0,0,0,0,0,0,0,0,0,0,0,0,0,0,0,0,0,0,0,0,0,0,0,0,0,0,0,0,0,0,0,0,0,0,0,0,0,0,0,0,0,0,0],"sum_hessian":[1.984562E4,3.6367146E3,1.6208905E4,3.5022528E2,3.2864893E3,1.1472794E3,1.5061626E4,7.8672806E1,2.715525E2,1.5528578E2,3.1312036E3,7.650601E1,1.0707734E3,6.89679E2,1.4371946E4,7.624358E1,2.4292214E0,3.0173704E1,2.4137877E2,3.566781E1,1.1961797E2,5.1894978E1,3.0793086E3,6.5386955E1,1.1119057E1,8.4671014E2,2.2406328E2,6.3424176E2,5.5437252E1,1.3771301E4,6.0064526E2,4.654556E0,7.158903E1,2.8820694E1,1.3530103E0,2.2821849E2,1.3160287E1,3.3166897E1,2.5009098E0,1.1128235E2,8.33563E0,1.4620681E1,3.7274296E1,3.0473752E3,3.1933332E1,3.700747E0,6.168621E1,8.7633505E0,2.3557065E0,8.377261E2,8.984038E0,1.534783E1,2.0871545E2,4.7969813E0,6.2944476E2,3.461189E1,2.0825365E1,1.3420768E4,3.505333E2,5.437996E2,5.684564E1,1.1425749E0,3.5119805E0,3.9869277E0,6.7602104E1,1.1066806E0,2.7714014E1,2.1895067E2,9.26782E0,1.2118126E1,1.042161E0,3.1940832E1,1.2260643E0,4.471855E0,1.0681049E2,1.1848149E0,7.150815E0,1.3455931E1,1.1647502E0,2.8924294E0,3.4381866E1,1.9911346E2,2.8482617E3,2.4505861E1,7.4274716E0,5.8357735E0,5.5850437E1,1.1051464E0,1.25056E0,6.674285E0,8.310518E2,1.0682085E0,7.9158297E0,1.3409567E1,1.9382633E0,1.9971494E2,9.000522E0,3.19188E0,6.262529E2,2.6734005E1,7.8778825E0,1.7473387E1,3.3519783E0,3.301976E2,1.309057E4,3.2864804E2,2.1885252E1,1.4197595E1,5.2960205E2,1.5269299E1,4.157634E1],"tree_param":{"num_deleted":"0","num_feature":"10000","num_nodes":"111","size_leaf_vector":"1"}},{"base_weights":[6.343527E-5,-1.175664E0,9.850439E-2,-1.2173352E0,8.3526736E-1,2.425215E-1,-6.2935436E-1,7.715512E-1,-1.2297106E0,1.2118984E0,-9.7081137E-1,-1.179978E0,3.175566E-1,-7.1391886E-1,1.2688136E0,-6.46342E-2,1.1770109E0,-1.2409682E0,7.145462E-1,2.4074666E-2,1.2428577E-1,-1.0713171E-1,-2.6951952E-2,-1.2700835E0,1.2556118E0,-1.0125582E0,3.9634746E-1,-8.881098E-1,3.616715E-3,-3.86986E-1,1.3973802E0,1.3908076E0,-7.278293E-3,1.7210576E-1,-1.2473265E0,1.2006401E-1,-8.291986E-2,-1.3195266E0,1.6281041E0,1.492453E0,-4.9706525E-1,1.248145E0,-1.312723E0,7.462266E-1,1.4489672E-1,8.3930165E-1,-9.557944E-1,-2.0135123E-1,1.3940743E0,-9.8827636E-1,8.8343483E-1,-9.427817E-2,1.4453347E0,2.1450927E-2,1.562212E-1,1.544024E-1,-1.2530334E-1,-1.3639417E-1,7.115578E-2,4.044868E-2,1.7013167E-1,4.305565E-3,1.5573959E-1,7.2250046E-2,-1.2105932E-1,-1.0278051E-1,1.461892E-1,1.6832496E-1,-1.3277084E-1,-5.25046E-2,8.807356E-2,8.470298E-2,-6.3835434E-3,-1.2951207E-1,1.1319902E-1,7.014453E-2,-1.00918196E-1,-3.246666E-2,2.0358959E-1,1.5651108E-1,-4.5545674E-3,-1.242428E-1,2.1745633E-2,1.9639318E-3,1.315869E-1,1.488482E-1,-8.725735E-2],"categories":[],"categories_nodes":[],"categories_segments":[],"categories_sizes":[],"default_left":[0,1,1,0,0,0,1,0,1,0,1,1,0,1,0,0,1,0,0,0,0,0,0,1,1,0,0,0,1,1,0,0,0,0,0,0,0,1,0,0,0,0,0,0,0,0,0,1,1,0,0,0,1,0,0,0,0,0,0,0,0,0,0,0,0,0,0,0,0,0,0,0,0,0,0,0,0,0,0,0,0,0,0,0,0,0,0],"id":11,"left_children":[1,3,5,7,9,11,13,15,17,19,21,23,25,27,29,-1,31,33,35,-1,-1,-1,-1,37,39,41,43,45,47,49,51,53,-1,-1,55,-1,-1,57,59,61,63,65,67,69,71,73,75,77,79,81,83,-1,85,-1,-1,-1,-1,-1,-1,-1,-1,-1,-1,-1,-1,-1,-1,-1,-1,-1,-1,-1,-1,-1,-1,-1,-1,-1,-1,-1,-1,-1,-1,-1,-1,-1,-1],"loss_changes":[2.249755E3,1.2686157E2,1.8803083E3,3.717163E1,2.2318855E1,1.5986901E3,4.7652075E2,6.3459215E0,3.290796E1,4.8740387E-1,1.2840986E-1,1.6630176E2,1.4911704E3,3.5462903E2,2.7519913E1,0E0,2.2145786E0,2.9547607E1,7.791801E0,0E0,0E0,0E0,0E0,1.05927246E2,1.2064995E1,5.4164154E2,1.1814272E3,2.6773328E2,1.5852155E2,8.446684E0,1.4584442E1,1.036643E0,0E0,0E0,2.5071045E1,0E0,0E0,6.525781E1,4.402237E-1,2.2184029E0,4.3531857E0,4.7128128E1,3.3796265E1,9.6071875E2,1.1454583E3,5.5576366E1,1.9512756E2,1.3440393E2,1.7666275E1,2.4769764E0,1.3611124E0,0E0,1.2884964E1,0E0,0E0,0E0,0E0,0E0,0E0,0E0,0E0,0E0,0E0,0E0,0E0,0E0,0E0,0E0,0E0,0E0,0E0,0E0,0E0,0E0,0E0,0E0,0E0,0E0,0E0,0E0,0E0,0E0,0E0,0E0,0E0,0E0,0E0],"parents":[2147483647,0,0,1,1,2,2,3,3,4,4,5,5,6,6,7,7,8,8,9,9,10,10,11,11,12,12,13,13,14,14,16,16,17,17,18,18,23,23,24,24,25,25,26,26,27,27,28,28,29,29,30,30,31,31,34,34,37,37,38,38,39,39,40,40,41,41,42,42,43,43,44,44,45,45,46,46,47,47,48,48,49,49,50,50,52,52],"right_children":[2,4,6,8,10,12,14,16,18,20,22,24,26,28,30,-1,32,34,36,-1,-1,-1,-1,38,40,42,44,46,48,50,52,54,-1,-1,56,-1,-1,58,60,62,64,66,68,70,72,74,76,78,80,82,84,-1,86,-1,-1,-1,-1,-1,-1,-1,-1,-1,-1,-1,-1,-1,-1,-1,-1,-1,-1,-1,-1,-1,-1,-1,-1,-1,-1,-1,-1,-1,-1,-1,-1,-1,-1],"split_conditions":[6.1579585E-1,4.0386777E-2,5.4602537E-2,1.3309586E-1,1.4126763E-1,2.00001E0,6.2019046E-2,7.130477E-2,1.0350113E-1,5.884087E-2,5.879049E-2,1.6656174E-1,9.7155017E-1,4.5926742E-2,1.4336966E-1,-6.46342E-2,5.6530315E-2,5.4708596E-2,1.1756877E-1,2.4074666E-2,1.2428577E-1,-1.0713171E-1,-2.6951952E-2,6.1728433E-2,3.395462E-2,3.4462395E-1,3.7004238E-1,3.03176E-1,1.0033274E-1,4.151755E-2,1.7122942E-1,5.3820867E-2,-7.278293E-3,1.7210576E-1,1.6388999E-1,1.2006401E-1,-8.291986E-2,3.853802E-2,6.384066E-2,7.8145474E-2,5.7886742E-2,1.4778337E-1,2.4835052E-1,1.9416829E0,2.5498015E-1,1.7831567E-1,6.677175E-1,5.3384166E-2,1.1652721E-1,1.4449441E-1,1.0246632E-1,-9.427817E-2,1.0451781E-1,2.1450927E-2,1.562212E-1,1.544024E-1,-1.2530334E-1,-1.3639417E-1,7.115578E-2,4.044868E-2,1.7013167E-1,4.305565E-3,1.5573959E-1,7.2250046E-2,-1.2105932E-1,-1.0278051E-1,1.461892E-1,1.6832496E-1,-1.3277084E-1,-5.25046E-2,8.807356E-2,8.470298E-2,-6.3835434E-3,-1.2951207E-1,1.1319902E-1,7.014453E-2,-1.00918196E-1,-3.246666E-2,2.0358959E-1,1.5651108E-1,-4.5545674E-3,-1.242428E-1,2.1745633E-2,1.9639318E-3,1.315869E-1,1.488482E-1,-8.725735E-2],"split_indices":[9907,9401,2101,9784,2196,3728,5783,9187,1005,6812,9511,8714,5108,9346,4675,0,3655,9041,3426,0,0,0,0,7398,5914,1511,9346,9666,3426,4614,795,2749,0,0,4068,0,0,9363,3728,7931,331,1564,7502,9300,3426,6395,7949,5027,5914,5783,5914,0,5482,0,0,0,0,0,0,0,0,0,0,0,0,0,0,0,0,0,0,0,0,0,0,0,0,0,0,0,0,0,0,0,0,0,0],"split_type":[0,0,0,0,0,0,0,0,0,0,0,0,0,0,0,0,0,0,0,0,0,0,0,0,0,0,0,0,0,0,0,0,0,0,0,0,0,0,0,0,0,0,0,0,0,0,0,0,0,0,0,0,0,0,0,0,0,0,0,0,0,0,0,0,0,0,0,0,0,0,0,0,0,0,0,0,0,0,0,0,0,0,0,0,0,0,0],"sum_hessian":[1.9436053E4,1.5007642E3,1.793529E4,1.4706829E3,3.0081366E1,1.497328E4,2.9620078E3,8.715053E0,1.4619678E3,2.5162985E1,4.9183803E0,7.495095E2,1.42237705E4,2.8362742E3,1.2573376E2,1.8058604E0,6.9091916E0,1.453911E3,8.056754E0,1.0485181E0,2.4114466E1,3.8403642E0,1.0780159E0,7.232318E2,2.6277718E1,7.947798E2,1.3428991E4,2.2820415E3,5.542326E2,8.914502E0,1.1681925E2,5.8035707E0,1.1056209E0,2.536604E0,1.4513744E3,6.2964E0,1.7603538E0,7.11636E2,1.1595779E1,2.3280298E1,2.9974194E0,9.278767E1,7.019921E2,5.614614E3,7.814377E3,8.5615135E1,2.1964263E3,4.8377438E2,7.04582E1,6.2014446E0,2.7130573E0,1.9710823E0,1.1484817E2,1.0244617E0,4.779109E0,2.4113238E0,1.4489631E3,6.9672864E2,1.4907355E1,1.0229995E0,1.0572781E1,1.0696996E0,2.22106E1,1.1017418E0,1.8956777E0,7.6390934E0,8.5148575E1,2.9396956E0,6.990524E2,5.3694354E2,5.0776704E3,1.790027E3,6.02435E3,9.91143E0,7.5703705E1,6.8170296E1,2.128256E3,4.5931232E2,2.4462074E1,6.2898285E1,7.559911E0,5.096698E0,1.1047468E0,1.253861E0,1.4591963E0,1.1310066E2,1.7475104E0],"tree_param":{"num_deleted":"0","num_feature":"10000","num_nodes":"87","size_leaf_vector":"1"}},{"base_weights":[-2.596107E-4,6.9117117E-1,-1.4960788E-1,8.5700643E-1,4.5789447E-2,-4.690952E-2,-1.0552939E0,9.146253E-1,-2.1591352E-1,-1.1691855E0,2.1791768E-1,-1.1179878E0,3.864833E-2,1.3616922E0,-1.1363335E0,9.375322E-1,-1.178225E0,1.1903459E-1,-9.9726254E-1,8.116869E-2,-1.2159734E0,-1.4511429E0,2.9368368E-1,-1.1718515E0,9.393156E-1,1.1610358E-1,-1.1524205E0,1.4484622E0,-8.595494E-2,1.8746357E-1,-1.1603354E0,-1.846881E0,9.520145E-1,-1.2291529E-1,-2.0009562E-2,-1.2205613E0,8.861809E-1,-1.2254868E-1,-2.2144163E-2,-1.2133435E-1,-2.0953555E-1,-1.0688258E0,3.7486935E-1,-1.186625E0,7.572195E-1,1.19521655E-1,-9.4719425E-2,2.1393564E-1,-7.251207E-1,-1.224444E0,1.0701674E0,-2.180522E-2,1.492742E0,1.2479826E0,-1.1906822E0,-1.9426943E-1,-3.8718555E-2,9.7788624E-2,-5.215484E-2,8.52385E-2,-1.3617113E-1,1.0014408E-1,-4.1000737E-4,1.02241434E-1,-1.3485827E-1,8.061601E-2,1.0517086E-2,-1.200119E-1,5.565325E-2,1.1544659E-1,-7.369279E-2,1.3045421E-1,1.4544955E-2,-9.856179E-2,-2.131789E-2,-1.2795915E-1,1.4226165E-1,-6.592533E-2,1.5632032E-1,1.5253016E-1,-3.8906507E-4,-8.5640356E-2,1.470773E-1,-1.216382E-1,7.372199E-2],"categories":[],"categories_nodes":[],"categories_segments":[],"categories_sizes":[],"default_left":[0,1,1,1,0,0,0,1,0,0,0,1,1,1,0,0,0,0,1,0,1,0,0,1,0,1,1,0,0,0,0,1,1,0,0,0,1,0,0,0,0,0,0,1,0,0,0,0,1,1,1,0,1,0,1,0,0,0,0,0,0,0,0,0,0,0,0,0,0,0,0,0,0,0,0,0,0,0,0,0,0,0,0,0,0],"id":12,"left_children":[1,3,5,7,9,11,13,15,17,19,21,23,25,27,29,31,33,-1,35,-1,37,39,41,43,45,47,49,51,-1,-1,53,55,57,-1,-1,59,61,-1,-1,-1,-1,63,65,67,69,-1,-1,71,73,75,77,-1,79,81,83,-1,-1,-1,-1,-1,-1,-1,-1,-1,-1,-1,-1,-1,-1,-1,-1,-1,-1,-1,-1,-1,-1,-1,-1,-1,-1,-1,-1,-1,-1],"loss_changes":[1.9628058E3,3.6132068E2,1.4538566E3,1.6625134E2,1.4482213E2,1.2866924E3,3.133579E2,1.23323E2,1.5249644E2,8.9518585E0,7.710226E1,1.16194214E2,1.1996982E3,1.1286415E1,1.1352893E2,1.0346997E2,1.1510658E0,0E0,3.8540215E1,0E0,5.26741E-1,1.5168343E0,6.465086E1,2.9755981E1,1.4192715E1,1.0050006E3,1.2841797E2,4.0529633E0,0E0,0E0,1.1325049E2,1.1207047E0,9.6197754E1,0E0,0E0,2.4582008E1,1.0322642E0,0E0,0E0,0E0,0E0,2.0639984E1,6.376426E1,2.4313599E1,5.780826E0,0E0,0E0,8.1682074E2,1.6945685E2,1.14161865E2,2.2736702E1,0E0,2.4099197E0,1.0410427E1,7.574829E1,0E0,0E0,0E0,0E0,0E0,0E0,0E0,0E0,0E0,0E0,0E0,0E0,0E0,0E0,0E0,0E0,0E0,0E0,0E0,0E0,0E0,0E0,0E0,0E0,0E0,0E0,0E0,0E0,0E0,0E0],"parents":[2147483647,0,0,1,1,2,2,3,3,4,4,5,5,6,6,7,7,8,8,9,9,10,10,11,11,12,12,13,13,14,14,15,15,16,16,18,18,20,20,21,21,22,22,23,23,24,24,25,25,26,26,27,27,30,30,31,31,32,32,35,35,36,36,41,41,42,42,43,43,44,44,47,47,48,48,49,49,50,50,52,52,53,53,54,54],"right_children":[2,4,6,8,10,12,14,16,18,20,22,24,26,28,30,32,34,-1,36,-1,38,40,42,44,46,48,50,52,-1,-1,54,56,58,-1,-1,60,62,-1,-1,-1,-1,64,66,68,70,-1,-1,72,74,76,78,-1,80,82,84,-1,-1,-1,-1,-1,-1,-1,-1,-1,-1,-1,-1,-1,-1,-1,-1,-1,-1,-1,-1,-1,-1,-1,-1,-1,-1,-1,-1,-1,-1],"split_conditions":[2.00001E0,2.441208E-2,3.159464E-2,3.4122318E-2,1.3748278E-1,6.1579585E-1,3.2766646E-1,1.6051775E-2,1.3687372E-1,9.669021E-2,5.2071724E-2,4.0386777E-2,1.1651263E-2,5.7109926E-2,2.1957551E-1,5.813498E-1,1.3471481E0,1.1903459E-1,4.981497E-2,8.116869E-2,3.7050214E-2,1.3351835E-1,6.1579585E-1,1.0350113E-1,1.4126763E-1,2.65043E-2,1.6656174E-1,1.5862828E-1,-8.595494E-2,1.8746357E-1,2.2291778E-1,4.766421E-2,5.9891105E-2,-1.2291529E-1,-2.0009562E-2,1.2261358E0,1.0175677E-1,-1.2254868E-1,-2.2144163E-2,-1.2133435E-1,-2.0953555E-1,8.966839E-2,5.424948E-1,3.3310995E-2,1.1756877E-1,1.19521655E-1,-9.4719425E-2,2.00001E0,1.6736671E-2,8.001612E-2,4.0191125E-2,-2.180522E-2,3.3785395E-2,1.7454247E-1,3.293004E-2,-1.9426943E-1,-3.8718555E-2,9.7788624E-2,-5.215484E-2,8.52385E-2,-1.3617113E-1,1.0014408E-1,-4.1000737E-4,1.02241434E-1,-1.3485827E-1,8.061601E-2,1.0517086E-2,-1.200119E-1,5.565325E-2,1.1544659E-1,-7.369279E-2,1.3045421E-1,1.4544955E-2,-9.856179E-2,-2.131789E-2,-1.2795915E-1,1.4226165E-1,-6.592533E-2,1.5632032E-1,1.5253016E-1,-3.8906507E-4,-8.5640356E-2,1.470773E-1,-1.216382E-1,7.372199E-2],"split_indices":[2814,2101,3364,8900,6649,9907,3714,4896,8951,7277,7585,9401,3728,3372,5701,4453,7232,0,8030,0,2148,6753,9907,1005,2196,8900,8714,9095,0,0,7345,2182,6380,0,0,9869,5914,0,0,0,0,9784,6812,2384,3426,0,0,2837,9346,5053,9187,0,3120,6743,9580,0,0,0,0,0,0,0,0,0,0,0,0,0,0,0,0,0,0,0,0,0,0,0,0,0,0,0,0,0,0],"split_type":[0,0,0,0,0,0,0,0,0,0,0,0,0,0,0,0,0,0,0,0,0,0,0,0,0,0,0,0,0,0,0,0,0,0,0,0,0,0,0,0,0,0,0,0,0,0,0,0,0,0,0,0,0,0,0,0,0,0,0,0,0,0,0,0,0,0,0,0,0,0,0,0,0,0,0,0,0,0,0,0,0,0,0,0,0],"sum_hessian":[1.9005646E4,3.375344E3,1.5630303E4,2.6850693E3,6.9027484E2,1.4039388E4,1.590915E3,2.5483625E3,1.3670677E2,8.493869E1,6.053361E2,1.0376188E3,1.3001769E4,5.10989E1,1.5398162E3,2.5213179E3,2.7044607E1,4.8640656E1,8.806612E1,1.5827127E0,8.335598E1,2.5497389E1,5.7983875E2,1.0115647E3,2.6054077E1,1.2208736E4,7.930321E2,4.9512653E1,1.5862453E0,1.1567834E1,1.5282483E3,1.2391332E1,2.5089265E3,2.5462238E1,1.5823693E0,7.9046425E1,9.019694E0,8.233616E1,1.0198201E0,2.0729076E1,4.768313E0,3.1922907E1,5.4791583E2,1.00425854E3,7.306144E0,2.3264711E1,2.789366E0,1.0937483E4,1.2712533E3,7.685753E2,2.4456799E1,1.1799407E0,4.8332714E1,1.8518215E1,1.5097301E3,1.1317566E1,1.0737658E0,2.465967E3,4.2959347E1,4.718028E0,7.432839E1,7.8752666E0,1.1444277E0,3.4533968E0,2.8469511E1,2.1003975E2,3.3787607E2,9.968534E2,7.405193E0,5.9512396E0,1.3549047E0,6.451853E2,1.0292298E4,8.419228E2,4.2933054E2,7.5339606E2,1.5179237E1,5.3507724E0,1.9106026E1,4.7284863E1,1.0478508E0,1.5005586E0,1.7017656E1,1.4902336E3,1.9496428E1],"tree_param":{"num_deleted":"0","num_feature":"10000","num_nodes":"85","size_leaf_vector":"1"}},{"base_weights":[-4.868298E-4,2.260549E-1,-4.109304E-1,1.176503E0,1.0800634E-1,2.0890911E-1,-6.3369036E-1,-1.3911208E0,1.2136477E0,-8.599178E-1,2.1950765E-1,3.5222724E-1,-7.459732E-1,-6.9612104E-1,5.891057E-1,1.3967052E-2,-1.4994798E0,1.2545419E0,-5.841272E-1,8.517531E-1,-1.0655631E0,6.2520796E-1,-5.648561E-2,4.6386686E-1,-8.618479E-1,-8.813456E-1,1.2971182E0,-8.030549E-1,-4.978644E-2,7.202628E-1,-1.1002995E0,-2.9869398E-2,-1.5533297E-1,1.2709512E0,-6.550735E-1,7.406519E-1,-1.285293E0,1.4396671E0,3.1008163E-1,3.7514335E-1,-1.1268979E0,7.418566E-1,-1.0183119E0,1.2942159E0,-1.9385421E-1,-1.0213941E0,5.653933E-1,-1.0907869E0,7.046107E-1,-9.8463064E-1,1.5597934E-1,-1.7560327E-2,1.4746702E0,-8.4190226E-1,6.4887124E-1,-1.1213974E0,4.3799776E-1,-1.5855217E0,8.0689275E-1,-1.1412268E-1,-2.1604963E-2,-1.3459076E-1,1.2799726E-1,9.457626E-2,-1.0219478E-1,-3.5869464E-2,1.15295045E-1,6.5518364E-2,-1.466666E-1,-1.5429926E-2,1.4898682E-1,-8.6131856E-2,5.903381E-2,6.32445E-2,-1.2163665E-1,-1.1447127E-1,1.9759242E-1,7.893168E-2,-2.18919E-1,-1.3265386E-1,6.4771876E-2,1.2984885E-1,-2.2041911E-2,-3.9769E-2,6.546112E-2,-1.1206704E-1,1.0510862E-1,-8.8715546E-2,6.566577E-2,-1.2503113E-1,6.838297E-2,9.849935E-2,-1.4175425E-1,-1.05801165E-1,1.621538E-1,1.5797286E-1,1.9751182E-2,-8.634951E-2,1.8002047E-1,1.9531226E-2,2.008493E-1,1.6809884E-1,-1.1500513E-1,-1.1952972E-1,7.006588E-2,-1.7583178E-1,-1.7960727E-2,9.021263E-2,-9.533615E-2],"categories":[],"categories_nodes":[],"categories_segments":[],"categories_sizes":[],"default_left":[1,0,0,0,0,0,1,0,1,0,0,1,1,1,1,0,0,1,1,0,0,1,0,0,1,1,0,1,0,0,1,0,0,0,0,0,0,0,0,1,1,1,1,1,1,1,0,1,1,1,0,0,1,1,1,0,0,1,1,0,0,0,0,0,0,0,0,0,0,0,0,0,0,0,0,0,0,0,0,0,0,0,0,0,0,0,0,0,0,0,0,0,0,0,0,0,0,0,0,0,0,0,0,0,0,0,0,0,0],"id":13,"left_children":[1,3,5,7,9,11,13,15,17,19,21,23,25,27,29,-1,31,33,35,37,39,41,43,45,47,49,51,53,55,57,59,-1,-1,61,63,65,67,69,71,73,75,77,79,81,83,85,87,89,91,93,-1,-1,95,97,99,101,103,105,107,-1,-1,-1,-1,-1,-1,-1,-1,-1,-1,-1,-1,-1,-1,-1,-1,-1,-1,-1,-1,-1,-1,-1,-1,-1,-1,-1,-1,-1,-1,-1,-1,-1,-1,-1,-1,-1,-1,-1,-1,-1,-1,-1,-1,-1,-1,-1,-1,-1,-1],"loss_changes":[1.7260378E3,1.3419015E3,9.1168945E2,1.2771301E2,1.1485916E3,2.3922072E2,3.7117566E2,3.412342E0,9.653235E1,3.878797E2,1.0685037E3,2.0627151E2,6.42562E1,3.193623E2,5.3187172E1,0E0,7.075653E-1,4.0766724E1,2.850661E1,3.728103E1,8.718811E1,7.4143567E2,1.0541305E3,2.1042969E2,4.676525E1,5.5645493E1,4.0726376E0,2.2419702E2,3.4397064E2,4.5230576E1,3.8425827E-1,0E0,0E0,3.1560791E1,7.7308345E0,5.3545113E0,7.916565E0,4.753784E0,2.1169338E1,1.749529E1,5.433423E1,5.036311E2,1.325542E2,3.6802368E0,8.9206116E2,1.9571335E1,1.7334988E2,3.2645523E1,1.14891615E1,4.120906E1,0E0,0E0,1.448637E0,2.219021E2,6.367457E1,1.8460846E1,1.9486719E2,1.7016926E0,3.652054E1,0E0,0E0,0E0,0E0,0E0,0E0,0E0,0E0,0E0,0E0,0E0,0E0,0E0,0E0,0E0,0E0,0E0,0E0,0E0,0E0,0E0,0E0,0E0,0E0,0E0,0E0,0E0,0E0,0E0,0E0,0E0,0E0,0E0,0E0,0E0,0E0,0E0,0E0,0E0,0E0,0E0,0E0,0E0,0E0,0E0,0E0,0E0,0E0,0E0,0E0],"parents":[2147483647,0,0,1,1,2,2,3,3,4,4,5,5,6,6,7,7,8,8,9,9,10,10,11,11,12,12,13,13,14,14,16,16,17,17,18,18,19,19,20,20,21,21,22,22,23,23,24,24,25,25,26,26,27,27,28,28,29,29,30,30,33,33,34,34,35,35,36,36,37,37,38,38,39,39,40,40,41,41,42,42,43,43,44,44,45,45,46,46,47,47,48,48,49,49,52,52,53,53,54,54,55,55,56,56,57,57,58,58],"right_children":[2,4,6,8,10,12,14,16,18,20,22,24,26,28,30,-1,32,34,36,38,40,42,44,46,48,50,52,54,56,58,60,-1,-1,62,64,66,68,70,72,74,76,78,80,82,84,86,88,90,92,94,-1,-1,96,98,100,102,104,106,108,-1,-1,-1,-1,-1,-1,-1,-1,-1,-1,-1,-1,-1,-1,-1,-1,-1,-1,-1,-1,-1,-1,-1,-1,-1,-1,-1,-1,-1,-1,-1,-1,-1,-1,-1,-1,-1,-1,-1,-1,-1,-1,-1,-1,-1,-1,-1,-1,-1,-1],"split_conditions":[6.701822E-3,4.057327E-1,2.1806413E-1,2.3666218E-1,2.00001E0,1.118764E-1,2.2811832E-2,3.0350594E-2,1.8343193E-2,3.4462395E-1,2.00001E0,1.2391599E-2,7.990425E-2,8.587679E-2,1.9200733E-2,1.3967052E-2,7.470129E-2,2.5061978E-2,4.4600587E-2,3.2840747E-1,1.9497892E-1,9.281956E-3,1.9451362E0,2.3239774E-1,1.5572778E-2,8.343695E-2,8.92826E-2,5.2615274E-2,6.1579585E-1,1.7646453E-1,5.8332134E-2,-2.9869398E-2,-1.5533297E-1,3.815002E-1,2.149468E-1,7.129605E-2,2.1148103E-1,3.2649826E-2,1.2249595E-1,6.195428E-2,9.5052995E-2,5.352278E-2,1.5097957E-2,5.9642743E-2,1.3543589E-2,1.169391E-1,4.1254678E-1,4.640205E-2,3.1791795E-2,4.664528E-2,1.5597934E-1,-1.7560327E-2,1.0231678E-1,9.896983E-2,3.396763E-2,5.8837786E-2,1.4050233E-1,6.2434297E-2,3.2011908E-2,-1.1412268E-1,-2.1604963E-2,-1.3459076E-1,1.2799726E-1,9.457626E-2,-1.0219478E-1,-3.5869464E-2,1.15295045E-1,6.5518364E-2,-1.466666E-1,-1.5429926E-2,1.4898682E-1,-8.6131856E-2,5.903381E-2,6.32445E-2,-1.2163665E-1,-1.1447127E-1,1.9759242E-1,7.893168E-2,-2.18919E-1,-1.3265386E-1,6.4771876E-2,1.2984885E-1,-2.2041911E-2,-3.9769E-2,6.546112E-2,-1.1206704E-1,1.0510862E-1,-8.8715546E-2,6.566577E-2,-1.2503113E-1,6.838297E-2,9.849935E-2,-1.4175425E-1,-1.05801165E-1,1.621538E-1,1.5797286E-1,1.9751182E-2,-8.634951E-2,1.8002047E-1,1.9531226E-2,2.008493E-1,1.6809884E-1,-1.1500513E-1,-1.1952972E-1,7.006588E-2,-1.7583178E-1,-1.7960727E-2,9.021263E-2,-9.533615E-2],"split_indices":[2101,6707,3426,4795,4883,2101,9822,5914,6395,1511,9346,7152,8500,6812,9907,0,4074,3728,5914,7499,8030,9300,8165,9907,5799,7277,5085,331,9907,4546,7859,0,0,940,8714,2788,2171,9346,7232,4794,9897,9816,7277,2749,2814,916,3728,9720,1425,4403,0,0,7801,5720,8714,9041,5108,6812,3266,0,0,0,0,0,0,0,0,0,0,0,0,0,0,0,0,0,0,0,0,0,0,0,0,0,0,0,0,0,0,0,0,0,0,0,0,0,0,0,0,0,0,0,0,0,0,0,0,0,0],"split_type":[0,0,0,0,0,0,0,0,0,0,0,0,0,0,0,0,0,0,0,0,0,0,0,0,0,0,0,0,0,0,0,0,0,0,0,0,0,0,0,0,0,0,0,0,0,0,0,0,0,0,0,0,0,0,0,0,0,0,0,0,0,0,0,0,0,0,0,0,0,0,0,0,0,0,0,0,0,0,0,0,0,0,0,0,0,0,0,0,0,0,0,0,0,0,0,0,0,0,0,0,0,0,0,0,0,0,0,0,0],"sum_hessian":[1.8561021E4,1.1960145E4,6.6008765E3,1.3203779E3,1.0639767E4,1.7451055E3,4.855771E3,1.8309162E1,1.3020688E3,1.0983616E3,9.541404E3,1.5179132E3,2.2719223E2,4.620309E3,2.3546213E2,1.1912584E0,1.7117905E1,1.2734048E3,2.8664074E1,1.174698E2,9.808917E2,3.86246E3,5.678945E3,1.3906543E3,1.2725891E2,2.1360751E2,1.3584714E1,3.9642024E3,6.561067E2,2.1903128E2,1.6430847E1,1.0157036E0,1.6102201E1,1.2628872E3,1.051754E1,9.900952E0,1.8763123E1,5.553546E1,6.193434E1,3.984514E1,9.4104663E2,3.6070022E3,2.5545781E2,5.234645E2,5.15548E3,8.839772E1,1.3022566E3,1.1129651E2,1.5962405E1,2.0550903E2,8.098474E0,1.4627527E0,1.2121962E1,3.8613105E3,1.0289186E2,2.0482611E2,4.5128058E2,7.3046575E0,2.1172662E2,1.5426233E1,1.0046142E0,3.8296952E0,1.2590575E3,1.6667724E0,8.850767E0,2.7359278E0,7.1650248E0,1.3805465E0,1.7382576E1,1.6323417E0,5.3903122E1,1.1556753E1,5.0377586E1,3.481858E1,5.0265565E0,9.3630194E2,4.744658E0,3.5502463E3,5.6755833E1,2.1574695E2,3.9710854E1,5.2213434E2,1.330156E0,4.1572676E3,9.982129E2,8.479511E1,3.6026049E0,7.646887E1,1.2257877E3,1.0238806E2,8.908445E0,1.4572864E1,1.3895416E0,2.0045882E2,5.050214E0,1.0981705E1,1.1402569E0,3.830677E3,3.0633438E1,7.80115E1,2.4880365E1,1.4894576E0,2.0333665E2,6.202738E1,3.8925317E2,6.281912E0,1.0227454E0,2.0132216E2,1.0404458E1],"tree_param":{"num_deleted":"0","num_feature":"10000","num_nodes":"109","size_leaf_vector":"1"}},{"base_weights":[-3.796934E-4,-7.5163215E-2,1.1768379E0,-1.1287456E0,5.3974227E-3,-1.0579529E0,1.2126454E0,7.790473E-1,-1.142349E0,8.158035E-2,-1.0659168E0,-1.1917461E0,4.7434047E-2,-7.451589E-1,1.2458045E0,-5.7205755E-2,1.1507801E0,-1.1551948E0,6.607483E-1,5.329612E-1,-8.561486E-2,-1.0959362E0,1.2504058E0,-1.3152322E0,3.2259606E-2,-9.8533815E-1,7.211506E-1,-1.2821778E0,1.2688546E0,1.9519109E-3,1.3748039E0,1.3156065E-1,-1.1607252E0,-5.9451103E-1,1.2868061E0,7.435854E-1,-1.3870084E-1,2.1715204E-1,-4.5970055E-1,1.9346176E-1,-1.1271952E0,1.5302089E-1,7.635547E-2,-1.3892604E-1,-1.6148707E-2,5.5453893E-2,-1.1350478E0,9.321511E-2,1.6823692E-2,5.9472155E-2,-1.7795001E-1,1.2948136E0,-6.52691E-2,4.128868E-2,1.5280357E-1,1.0211094E-1,-1.16701424E-1,-8.000217E-2,-3.6367157E-3,2.9741963E-2,1.4289497E-1,7.820889E-2,-2.3900783E-1,1.16343975E-1,-3.6825757E-2,-9.954698E-2,3.2110374E-2,-2.9919902E-2,-1.13571346E-1,5.7343464E-2,-1.2082436E-1,1.0593015E-1,-1.14153326E-1,4.437365E-2,-3.5607673E-2,5.091078E-3,-1.2789856E-1,-1.1079266E-1,1.3054216E-1,5.819134E-2,-9.142285E-2],"categories":[],"categories_nodes":[],"categories_segments":[],"categories_sizes":[],"default_left":[1,0,0,0,1,1,0,0,1,0,1,1,0,1,0,0,0,0,1,1,1,0,0,1,0,0,0,0,1,0,0,0,0,0,0,1,0,0,1,1,0,0,0,0,0,0,0,0,0,0,0,0,1,0,0,0,0,0,0,0,0,0,0,0,0,0,0,0,0,0,0,0,0,0,0,0,0,0,0,0,0],"id":14,"left_children":[1,3,5,7,9,11,13,15,17,19,21,23,-1,25,27,-1,29,31,33,35,37,39,41,43,-1,45,47,49,51,-1,53,-1,55,57,59,61,63,65,67,69,71,-1,73,-1,-1,-1,75,-1,-1,-1,-1,77,79,-1,-1,-1,-1,-1,-1,-1,-1,-1,-1,-1,-1,-1,-1,-1,-1,-1,-1,-1,-1,-1,-1,-1,-1,-1,-1,-1,-1],"loss_changes":[1.5897483E3,1.4411556E3,8.759607E1,3.219043E1,1.2875066E3,4.161972E0,6.987732E1,5.2455993E0,2.8510132E1,1.1115349E3,7.41958E1,3.4947872E0,0E0,7.1604815E0,6.2505005E1,0E0,1.87257E0,1.778601E1,7.924432E0,5.632781E2,1.2174141E3,4.1912354E1,4.4384174E0,1.0891476E0,0E0,4.354704E0,2.1126282E-1,1.0334087E1,3.595752E1,0E0,2.8907394E-1,0E0,1.7488647E1,3.9710855E-1,4.7430325E-1,3.6754883E2,2.8475397E2,7.4919006E2,5.213359E2,1.41883545E1,3.2876587E1,0E0,7.491902E-1,0E0,0E0,0E0,2.6351852E0,0E0,0E0,0E0,0E0,2.7344849E1,1.1917354E1,0E0,0E0,0E0,0E0,0E0,0E0,0E0,0E0,0E0,0E0,0E0,0E0,0E0,0E0,0E0,0E0,0E0,0E0,0E0,0E0,0E0,0E0,0E0,0E0,0E0,0E0,0E0,0E0],"parents":[2147483647,0,0,1,1,2,2,3,3,4,4,5,5,6,6,7,7,8,8,9,9,10,10,11,11,13,13,14,14,16,16,17,17,18,18,19,19,20,20,21,21,22,22,23,23,25,25,26,26,27,27,28,28,30,30,32,32,33,33,34,34,35,35,36,36,37,37,38,38,39,39,40,40,42,42,46,46,51,51,52,52],"right_children":[2,4,6,8,10,12,14,16,18,20,22,24,-1,26,28,-1,30,32,34,36,38,40,42,44,-1,46,48,50,52,-1,54,-1,56,58,60,62,64,66,68,70,72,-1,74,-1,-1,-1,76,-1,-1,-1,-1,78,80,-1,-1,-1,-1,-1,-1,-1,-1,-1,-1,-1,-1,-1,-1,-1,-1,-1,-1,-1,-1,-1,-1,-1,-1,-1,-1,-1,-1],"split_conditions":[1.7862396E-2,6.1579585E-1,5.5051565E-1,1.3309586E-1,8.540867E-3,5.0797377E-2,1.6265781E-1,7.130477E-2,7.960538E-2,2.00001E0,5.66355E-2,7.368891E-2,4.7434047E-2,4.1799564E-2,1.8427804E-1,-5.7205755E-2,5.530567E-2,1.6388999E-1,5.5143725E-2,1.0839868E-1,6.196223E-3,2.761321E-1,2.2013474E-1,2.437374E-2,3.2259606E-2,4.907738E-2,5.826307E-2,3.46917E-2,1.9026125E-2,1.9519109E-3,8.868434E-2,1.3156065E-1,1.8964016E-1,2.221511E-1,1.0554818E-1,5.0927922E-2,3.03176E-1,2.00001E0,4.4681236E-2,3.5346325E-2,1.9451362E0,1.5302089E-1,4.9448095E-2,-1.3892604E-1,-1.6148707E-2,5.5453893E-2,1.8786092E-1,9.321511E-2,1.6823692E-2,5.9472155E-2,-1.7795001E-1,2.3757331E-2,3.2161072E-2,4.128868E-2,1.5280357E-1,1.0211094E-1,-1.16701424E-1,-8.000217E-2,-3.6367157E-3,2.9741963E-2,1.4289497E-1,7.820889E-2,-2.3900783E-1,1.16343975E-1,-3.6825757E-2,-9.954698E-2,3.2110374E-2,-2.9919902E-2,-1.13571346E-1,5.7343464E-2,-1.2082436E-1,1.0593015E-1,-1.14153326E-1,4.437365E-2,-3.5607673E-2,5.091078E-3,-1.2789856E-1,-1.1079266E-1,1.3054216E-1,5.819134E-2,-9.142285E-2],"split_indices":[7126,9907,3744,9784,3381,8830,5108,9187,4177,3426,1586,8030,0,9300,4875,0,2749,4068,3426,5914,5914,5459,7353,3614,0,3426,4883,396,6380,0,3655,0,9836,9346,6081,2870,9666,4883,6395,3372,8165,0,3381,0,0,0,7843,0,0,0,0,858,2101,0,0,0,0,0,0,0,0,0,0,0,0,0,0,0,0,0,0,0,0,0,0,0,0,0,0,0,0],"split_type":[0,0,0,0,0,0,0,0,0,0,0,0,0,0,0,0,0,0,0,0,0,0,0,0,0,0,0,0,0,0,0,0,0,0,0,0,0,0,0,0,0,0,0,0,0,0,0,0,0,0,0,0,0,0,0,0,0,0,0,0,0,0,0,0,0,0,0,0,0,0,0,0,0,0,0,0,0,0,0,0,0],"sum_hessian":[1.805583E4,1.6978215E4,1.0776161E3,1.2050752E3,1.577314E4,1.6543901E1,1.0610723E3,8.133476E0,1.1969418E3,1.4726815E4,1.0463243E3,1.5419764E1,1.1241393E0,1.7314373E1,1.0437578E3,1.6386654E0,6.4948106E0,1.1888315E3,8.110231E0,3.9799265E3,1.0746889E4,1.0334576E3,1.286672E1,1.4378741E1,1.0410222E0,1.5159316E1,2.1550574E0,8.937375E0,1.0348204E3,1.2532684E0,5.2415423E0,2.1260579E0,1.1867054E3,2.7156615E0,5.3945704E0,3.0297349E3,9.5019147E2,5.9398667E3,4.807022E3,2.4338434E1,1.0091192E3,1.0145465E1,2.7212548E0,1.3319956E1,1.0587854E0,1.1036226E0,1.4055694E1,1.0633698E0,1.0916877E0,1.8310659E0,7.106309E0,1.0150984E3,1.9722055E1,1.2278981E0,4.013644E0,2.9469652E0,1.1837585E3,1.6681001E0,1.0475613E0,1.066138E0,4.328432E0,2.9937017E3,3.6033382E1,1.4179625E2,8.083952E2,4.6831232E2,5.4715547E3,3.8858674E3,9.211546E2,1.9612736E1,4.725699E0,6.0994263E0,1.0030198E3,1.4571575E0,1.2640972E0,1.5912303E0,1.2464463E1,4.0072293E0,1.0110912E3,1.1369422E1,8.3526325E0],"tree_param":{"num_deleted":"0","num_feature":"10000","num_nodes":"81","size_leaf_vector":"1"}},{"base_weights":[-5.4327643E-4,9.282569E-2,-8.499056E-1,2.2695871E-2,1.155588E0,1.2799158E0,-9.809409E-1,-6.903683E-1,1.300261E-1,-9.535192E-1,1.1867688E0,1.3364675E0,-1.01812534E-1,-1.095253E0,-3.2840934E-1,1.0606738E0,-8.032463E-1,-1.0631135E0,1.8956411E-1,-1.1019734E0,4.9051687E-2,1.2289833E0,-1.6139291E-2,-6.1223585E-2,1.3684425E0,-1.1218361E0,1.6363865E0,1.5414624E-1,-4.6681747E-1,-8.8723284E-1,1.1535279E0,-8.6687917E-1,9.867699E-1,-1.0827695E0,1.1086105E0,4.131827E-1,-1.5652373E-1,-1.240926E0,3.0537931E-2,-1.2080511E0,1.2484858E0,-4.1831252E-1,1.4047445E-1,1.3911562E0,-1.1888854E-2,-1.1407502E0,1.3254145E0,1.9410052E0,-4.12704E-2,-6.203E-1,1.5734285E-1,-9.856287E-2,-2.1124763E-2,-6.239455E-2,1.2229051E-1,-9.13967E-2,1.22290574E-1,-1.1929108E-1,1.13583945E-1,-1.1030199E-1,7.933263E-2,3.9003403E-3,1.4497834E-1,-8.442543E-2,4.7119893E-2,-2.6411159E-2,1.03448234E-1,-1.5473546E-2,-1.3251728E-1,5.227465E-2,-1.625682E-1,1.2654935E-1,-5.9850246E-2,1.2783557E-1,-8.6985536E-2,1.4055493E-1,1.3606684E-2,-1.16531365E-1,6.3413344E-2,-9.706563E-2,1.671489E-1,4.2374264E-2,2.0380402E-1,8.277919E-2,-7.720601E-2],"categories":[],"categories_nodes":[],"categories_segments":[],"categories_sizes":[],"default_left":[1,1,0,0,0,1,1,0,0,1,1,0,0,1,0,0,1,1,1,1,0,0,